/*
 * This file is auto-generated by gen-weights.py
 */

#pragma once

#include "definitions.h"


// Conv layer weights.
float conv_weights [FILTERS][KRN_ROWS][KRN_COLS]
	= {
			{
				{ -0.35817068815231323, -0.5892293453216553, -0.8251777291297913, -0.5265204906463623, -0.07503702491521835, -0.2875608801841736, 0.3358648121356964 },
				{ -0.11902616918087006, -0.3395421802997589, -0.20661190152168274, -0.0391252264380455, 0.19223538041114807, 0.3773344159126282, 0.0351654589176178 },
				{ 0.7210220098495483, 0.7681966423988342, 0.46461406350135803, 0.2576020658016205, -0.24732840061187744, -0.008790713734924793, 0.11384042352437973 },
				{ 0.7472323179244995, 0.7005724906921387, 0.4021357595920563, 0.14851482212543488, -0.1384499967098236, -0.2536996901035309, -0.39782553911209106 },
				{ 0.03288055956363678, 0.27985915541648865, 0.22523467242717743, 0.3050747811794281, -0.32489147782325745, -0.40002167224884033, -0.3804367780685425 },
				{ -0.6885040402412415, -0.2856736183166504, 0.27904585003852844, 0.3483627438545227, 0.14326955378055573, 0.1490878164768219, 0.3936918377876282 },
				{ -0.7903761863708496, -0.5690891742706299, -0.20517267286777496, -0.21098209917545319, 0.5079693794250488, 0.3208926320075989, -0.15513578057289124 }
			},
			{
				{ 0.3732417821884155, 0.13193020224571228, 0.005231781397014856, 0.27599817514419556, 0.07641185075044632, -0.41041088104248047, -0.31432536244392395 },
				{ -0.09885862469673157, 0.11973462998867035, 0.05170623958110809, 0.3749789893627167, 0.2566443383693695, -0.7757154107093811, -0.17453403770923615 },
				{ -0.11376915872097015, -0.37800151109695435, 0.07065189629793167, 0.7038388848304749, 0.10996004194021225, -0.5806664228439331, -0.08447279036045074 },
				{ 0.275362104177475, -0.6015779972076416, -0.3036450445652008, 0.5140324234962463, 0.4088329076766968, -0.42390668392181396, -0.09030333906412125 },
				{ 0.33661457896232605, -0.34923508763313293, -0.14611677825450897, 0.5608264803886414, 0.19807447493076324, -0.2706208825111389, -0.18517741560935974 },
				{ 0.22907519340515137, -0.3127855658531189, -0.1218152865767479, -0.010121585801243782, 0.4371919631958008, -0.20367948710918427, -0.01181812584400177 },
				{ -0.018448268994688988, 0.0879160612821579, -0.2758001983165741, 0.3215700685977936, -0.08842445909976959, 0.11573049426078796, -0.19580814242362976 }
			},
			{
				{ 0.30997440218925476, 0.1069488674402237, -0.0027449955232441425, -0.09315107017755508, 0.19404277205467224, 0.1499626785516739, 0.13287344574928284 },
				{ 0.19197554886341095, 0.37341076135635376, 0.1991206705570221, -0.01656900718808174, 0.13365231454372406, 0.2483557164669037, 0.7034335732460022 },
				{ 0.48079001903533936, 0.4672164022922516, 0.2700410783290863, 0.5143212676048279, 0.6064907312393188, 0.4874620735645294, 0.22891314327716827 },
				{ 0.34454190731048584, 0.12053666263818741, -0.13017185032367706, 0.21497976779937744, -0.012318103574216366, 0.25967100262641907, -0.21287299692630768 },
				{ 0.010302230715751648, 0.0660877525806427, -0.08286862820386887, -0.355317622423172, -0.4002225399017334, -0.7429274320602417, -0.9350855350494385 },
				{ -0.28734228014945984, -0.7701647877693176, -0.7298408150672913, -0.7491582036018372, -1.0192068815231323, -1.032499074935913, -0.710222601890564 },
				{ -0.3577887713909149, -0.7337371706962585, -0.6715446710586548, -0.6261759400367737, -0.5831815600395203, 0.3968539237976074, 0.675395667552948 }
			},
			{
				{ -0.7473581433296204, -1.0120526552200317, -0.764374852180481, 0.08862586319446564, 0.4593529999256134, 0.5318798422813416, -0.015871893614530563 },
				{ -0.8594490885734558, -0.6331905126571655, 0.032219305634498596, 0.6193299293518066, 0.7704854011535645, -0.0041458746418356895, 0.013234151527285576 },
				{ -0.9603272676467896, -0.2976546287536621, 0.42019277811050415, 0.6414797306060791, 0.2731116712093353, 0.1746380627155304, -0.16641689836978912 },
				{ -0.8875223398208618, 0.26689574122428894, 0.35690584778785706, 0.5097072720527649, 0.11509440839290619, 0.27931177616119385, -0.46763452887535095 },
				{ -0.39792707562446594, 0.23917227983474731, 0.29252302646636963, -0.06736383587121964, 0.22327587008476257, 0.1816491335630417, -0.4338567554950714 },
				{ -0.23061570525169373, 0.2674586772918701, 0.11196405440568924, 0.22591432929039001, 0.0867861807346344, 0.00011420239025028422, -0.13198836147785187 },
				{ 0.19807814061641693, 0.2688979506492615, -0.12056537717580795, -0.0005480209365487099, -0.1263369768857956, 0.13513357937335968, 0.05089476332068443 }
			}
		};

// Conv layer biases.
float conv_biases [FILTERS] = { -0.06213121488690376, -0.06358350813388824, 0.11759389936923981, -0.2803385853767395 };
