/*
 * This file is auto-generated by gen-weights.py
 */

#pragma once

#include "definitions.h"


// Dense layer weights.
float dense_weights[FLAT_SIZE][DENSE_SIZE]
	 = {
			{ 0.08571605384349823, 0.12321046739816666, 0.015226269140839577, 0.005183110944926739, -0.06734976917505264, 0.043348584324121475, -0.07096651196479797, 0.021548263728618622, -0.033206067979335785, 0.015100675635039806 },
			{ -0.09228654205799103, -0.026748832315206528, -0.20551098883152008, 0.19421495497226715, -0.1310804933309555, -0.0911012664437294, 0.2492394745349884, -0.09108021855354309, -0.19154253602027893, -0.10711820423603058 },
			{ 0.03846355900168419, -0.30905795097351074, 0.13188382983207703, 0.013713406398892403, -0.08246929943561554, -0.1444883495569229, 0.06130893528461456, -0.27431291341781616, -0.042540717869997025, -0.30052685737609863 },
			{ -0.1681356430053711, -0.045744866132736206, -0.016861317679286003, -0.028041554614901543, -0.3019038140773773, -0.11215169727802277, 0.1867084950208664, -0.4588998854160309, 0.04103733226656914, -0.557406485080719 },
			{ -0.16623617708683014, 0.07151433080434799, 0.1966840624809265, 0.05432217940688133, -0.5317758917808533, 0.03882783651351929, 0.22132077813148499, -0.5361838340759277, -0.12333296239376068, -0.5105538964271545 },
			{ -0.17697830498218536, -0.0654883086681366, 0.138078510761261, 0.029403353109955788, -0.19644083082675934, -0.05511367321014404, 0.13053174316883087, -0.15429151058197021, -0.14632302522659302, -0.2593723237514496 },
			{ -0.21149034798145294, 0.08901894092559814, 0.06826206296682358, 0.04083866998553276, -0.11162560433149338, 0.026164501905441284, 0.1744404137134552, -0.2483808696269989, -0.186411514878273, -0.38244473934173584 },
			{ -0.09471004456281662, -0.03883959352970123, -0.03748726472258568, 0.11972703039646149, -0.1470872312784195, -0.0953521877527237, 0.27210772037506104, -1.0055420398712158, 0.009654632769525051, -0.4682779014110565 },
			{ -0.03142264485359192, -0.07930385321378708, 0.05702277272939682, -0.035429697483778, -0.21854783594608307, 0.09403999149799347, 0.07061799615621567, -1.4592607021331787, 0.06037093698978424, -0.43432021141052246 },
			{ -0.10076911002397537, -0.042090028524398804, -0.13058343529701233, -0.12777012586593628, -0.18496936559677124, 0.009894120506942272, 0.35456985235214233, -0.293946772813797, -0.05905461683869362, -0.466707706451416 },
			{ 0.013460158370435238, -0.22178202867507935, -0.22442470490932465, -0.3787100315093994, 0.2113543450832367, -0.16147029399871826, 0.319782018661499, 0.004373258911073208, -0.1297488957643509, -0.3764510154724121 },
			{ 0.0300851259380579, -0.049744341522455215, -0.19347581267356873, -0.5103297233581543, 0.0191582553088665, 0.036548811942338943, 0.06896009296178818, -0.29242435097694397, 0.03278311342000961, -0.07377737760543823 },
			{ -0.09472163021564484, -0.10178644210100174, 0.0744905024766922, -0.1401442587375641, -0.05244198441505432, 0.1420629620552063, -0.21341806650161743, -0.09171157330274582, -0.03405167534947395, 0.0814962387084961 },
			{ -0.022272028028964996, 0.10826356709003448, -0.04507441073656082, 0.014423034153878689, -0.008045698516070843, -0.014874158427119255, 0.10083183646202087, 0.04159384220838547, -0.04241907224059105, 0.03191437944769859 },
			{ 0.024778613820672035, 0.0015314279589802027, -0.2941610515117645, 0.1691616177558899, -0.10425766557455063, 0.007503909524530172, 0.12477657943964005, 0.1678892970085144, -0.25137007236480713, -0.07847283035516739 },
			{ 0.042449649423360825, 0.20868779718875885, -0.21968278288841248, 0.12569184601306915, 0.13330765068531036, -0.04531222581863403, 0.09616280347108841, -0.10235632210969925, -0.27665039896965027, -0.40678298473358154 },
			{ 0.101582832634449, 0.0361177921295166, 0.010434234514832497, -0.0012472023954614997, 0.09663695096969604, 0.0780482292175293, 0.041152939200401306, 0.06817582994699478, -0.04297763481736183, -0.10256573557853699 },
			{ -0.1706453412771225, 0.049615923315286636, -0.04495193436741829, -0.08249800652265549, 0.18481498956680298, 0.12567146122455597, -0.09478747099637985, -0.026794064790010452, 0.10185237228870392, 0.011447510682046413 },
			{ -0.06594008952379227, 0.01609642058610916, 0.07519462704658508, 0.06793635338544846, 0.022372225299477577, -0.11559514701366425, -0.02479456551373005, -0.014609325677156448, 0.05709131062030792, -0.07565280795097351 },
			{ 0.009816023521125317, -0.005198705475777388, 0.07029672712087631, 0.006905023939907551, 0.11828740686178207, -0.21261784434318542, -0.12317638099193573, 0.05553589388728142, 0.038293931633234024, -0.20214591920375824 },
			{ 0.029124705120921135, 0.13774481415748596, 0.21006499230861664, -0.03387492150068283, 0.02298346534371376, -0.07975970953702927, -0.09950315207242966, -0.0877104178071022, 0.0631556287407875, -0.2407781332731247 },
			{ 0.006275317166000605, 0.2205163836479187, 0.12047049403190613, 0.11224957555532455, 0.2824960947036743, -0.20434626936912537, -0.04578794538974762, -0.4999588131904602, -0.04467833414673805, -0.2736217975616455 },
			{ 0.08588415384292603, 0.011228112503886223, 0.33388081192970276, -0.01029834896326065, 0.07385220378637314, -0.21395213901996613, -0.09660714864730835, -0.4909231960773468, -0.08724455535411835, -0.4563470184803009 },
			{ 0.15034203231334686, -0.038314562290906906, 0.14396026730537415, 0.11056964099407196, 0.09056171029806137, -0.09401316195726395, -0.19315114617347717, -0.5482234358787537, 0.11620556563138962, -0.4955601096153259 },
			{ 0.057330306619405746, 0.03857705742120743, -0.04787089303135872, -0.04974103718996048, 0.03794620931148529, -0.18279334902763367, -0.007581313140690327, -0.23372173309326172, -0.03642838075757027, -0.40564626455307007 },
			{ 0.019338807091116905, 0.001325962832197547, -0.02801629900932312, -0.06964314728975296, 0.041964612901210785, -0.0760887935757637, 0.1352519541978836, -0.29864946007728577, 0.04167241230607033, -0.7949970960617065 },
			{ -0.04521806538105011, -0.4130871593952179, -0.10707024484872818, -0.293694406747818, -0.30206647515296936, -0.19940325617790222, 0.08850274980068207, -0.4438861608505249, 0.2375960797071457, -0.30037179589271545 },
			{ 0.13617953658103943, -0.02014227956533432, 0.0020210931543260813, -0.2470722496509552, -0.34633490443229675, -0.10397811979055405, -0.006623222958296537, -0.10247767716646194, -0.19841763377189636, 0.08105363696813583 },
			{ -0.06426113098859787, 0.05724019184708595, -0.021711545065045357, -0.03172551468014717, 0.10716408491134644, -0.04912476986646652, -0.01407631952315569, 0.10281533002853394, 0.05684011057019234, -0.2414838671684265 },
			{ -0.15121376514434814, -0.15815572440624237, 0.037941668182611465, 0.06905907392501831, 0.28090858459472656, -0.05866483226418495, 0.08096988499164581, -0.013811883516609669, -0.00910312868654728, -0.06449557095766068 },
			{ -0.10036201775074005, -0.07323933392763138, -0.07020102441310883, -0.04225771129131317, -0.046404603868722916, 0.03678888827562332, -0.0816040113568306, 0.16510045528411865, -0.054296694695949554, 0.0129155945032835 },
			{ -0.10734932869672775, 0.0731477290391922, -0.15208809077739716, 0.04669102281332016, 0.06355735659599304, -0.06733689457178116, -0.05427597463130951, 0.18611763417720795, 0.03504028543829918, -0.03670931234955788 },
			{ -0.23983792960643768, 0.019826151430606842, -0.04463517293334007, 0.20990699529647827, 0.08570780605077744, -0.13859081268310547, -0.04846123233437538, 0.29989299178123474, 0.03703876584768295, -0.20508071780204773 },
			{ -0.1298190951347351, 0.006598080974072218, -0.010745656676590443, 0.14852973818778992, -0.05794605612754822, -0.16837137937545776, -0.17541056871414185, 0.21189533174037933, -0.07496484369039536, -0.0780319944024086 },
			{ -0.04527582973241806, 0.04953137785196304, 0.12285131216049194, 0.12121152132749557, -0.08010996133089066, -0.13935339450836182, -0.19633710384368896, -0.09204471856355667, 0.005241598468273878, 0.08099542558193207 },
			{ -0.04460938647389412, -0.08199959993362427, 0.19463780522346497, 0.05089810863137245, -0.10670095682144165, -0.2553355395793915, -0.2920917570590973, -0.05317831411957741, 0.08152668923139572, 0.13157375156879425 },
			{ 0.07627787441015244, -0.25271663069725037, 0.05539465323090553, 0.0668223574757576, -0.05269530043005943, -0.09953626245260239, -0.23750533163547516, -0.05925307050347328, 0.1589520126581192, 0.07043866068124771 },
			{ 0.05536048114299774, -0.28085750341415405, 0.16062158346176147, -0.0006000754656270146, -0.02652745321393013, -0.024265607818961143, -0.1324169933795929, -0.13251104950904846, 0.08777213841676712, 0.03339868411421776 },
			{ 0.09934870898723602, -0.4542165994644165, 0.10726597160100937, -0.032633110880851746, -0.1757742166519165, -0.06906672567129135, 0.08263608813285828, -0.22649380564689636, -0.00274602766148746, 0.22241729497909546 },
			{ 0.04137510433793068, -0.3476811945438385, 0.21291756629943848, 0.054531846195459366, -0.0748802125453949, -0.28713199496269226, 0.19193895161151886, -0.07211138308048248, 0.11127553880214691, -0.031498368829488754 },
			{ 0.026005031540989876, -0.2914639115333557, -0.19500188529491425, -0.04827599972486496, 0.10598447173833847, -0.051767993718385696, 0.02709873765707016, -0.37203115224838257, 0.1199372187256813, -0.5566902160644531 },
			{ -0.10284281522035599, -0.2180226594209671, -0.03938581794500351, -0.4239896237850189, -0.05482814088463783, 0.09634967148303986, -0.05107661336660385, -0.7836581468582153, -0.07959573715925217, -0.5258337259292603 },
			{ 0.0767272487282753, -0.16780005395412445, -0.35252755880355835, 0.1560545414686203, -0.04166452959179878, -0.4411123991012573, -0.1933366060256958, 0.20885378122329712, -0.16678698360919952, -0.01430942676961422 },
			{ -0.11391642689704895, -0.0396641343832016, -0.14343063533306122, 0.08675558120012283, -0.033282339572906494, -0.1753559410572052, -0.20037119090557098, 0.19799081981182098, -0.07568718492984772, -0.07755492627620697 },
			{ 0.07708127796649933, 0.08748991042375565, -0.1712934374809265, 0.1101689413189888, 0.0906214490532875, -0.302388072013855, -0.16983500123023987, 0.15552064776420593, 0.16465698182582855, -0.007358931936323643 },
			{ 0.07362775504589081, 0.23554742336273193, -0.26546570658683777, 0.04623977094888687, 0.02589447610080242, 0.05125753954052925, -0.033607639372348785, 0.11485558748245239, 0.08135232329368591, -0.02794753387570381 },
			{ -0.08027090132236481, -0.04456827789545059, -0.00515309814363718, 0.0032435187604278326, 0.10569599270820618, 0.02225506491959095, -0.06642403453588486, 0.11254371702671051, 0.0655876100063324, -0.03041127137839794 },
			{ -0.06050228700041771, -0.03551459684967995, 0.039424750953912735, -0.051454897969961166, 0.04712216928601265, -0.10833680629730225, -0.25686120986938477, -0.13289515674114227, 0.06255708634853363, 0.17571507394313812 },
			{ -0.06055040284991264, 0.040335770696401596, 0.05647234246134758, -0.006645901594310999, -0.06114405393600464, -0.06417875736951828, -0.23062805831432343, 0.053997430950403214, 0.09443224221467972, -0.013622330501675606 },
			{ -0.03905113786458969, -0.03714118152856827, 0.1445944905281067, 0.06713338196277618, -0.34293338656425476, -0.21569111943244934, -0.29142656922340393, -0.003282366320490837, 0.1316409856081009, 0.20381169021129608 },
			{ -0.0449339896440506, -0.15345650911331177, 0.16530834138393402, -0.040495846420526505, -0.29913467168807983, -0.08409412950277328, -0.20031510293483734, -0.047731347382068634, 0.08242162317037582, 0.12897150218486786 },
			{ 0.01723112165927887, -0.3717097342014313, -0.03284616023302078, -0.002691056579351425, -0.27784889936447144, 0.06449655443429947, -0.1335277110338211, -0.06117139384150505, 0.17333118617534637, 0.10213060677051544 },
			{ 0.07229394465684891, -0.34160947799682617, 0.09596031159162521, -0.10628873109817505, -0.3357278108596802, 0.05831534042954445, -0.14170922338962555, -0.04007582738995552, 0.07081350684165955, 0.12263117730617523 },
			{ 0.12663403153419495, -0.036608755588531494, -0.004638142883777618, -0.11818249523639679, -0.2550462484359741, 0.1244523748755455, 0.024179214611649513, -0.2502534091472626, 0.23046036064624786, 0.17539562284946442 },
			{ 0.1693332940340042, -0.04524347186088562, -0.15440872311592102, -0.3041312098503113, -0.02785857953131199, 0.11520180106163025, -0.04176750406622887, -0.34007638692855835, 0.07804781943559647, 0.09341862052679062 },
			{ -0.059576958417892456, -0.1505753993988037, -0.0530807264149189, -0.06552521139383316, 0.1793176233768463, 0.05396056920289993, 0.02337714284658432, -0.436715304851532, -0.08893576264381409, -0.24728749692440033 },
			{ 0.0339435376226902, -0.07467237859964371, -0.1155136376619339, 0.034373603761196136, -0.049516644328832626, -0.05749022960662842, -0.3142938017845154, 0.1759205013513565, 0.03297813981771469, -0.15304219722747803 },
			{ -0.11504018306732178, -0.1433001160621643, 0.18685783445835114, 0.14111460745334625, -0.03536687046289444, -0.2626993656158447, -0.28851452469825745, -0.0007065044483169913, 0.060363929718732834, 0.0242876335978508 },
			{ 0.08140888065099716, 0.12291878461837769, 0.09548451751470566, -0.055990539491176605, 0.10006876289844513, -0.2936107814311981, 0.006163434125483036, -0.058034032583236694, 0.05964404717087746, -0.01138217095285654 },
			{ -0.1145491749048233, -0.033789608627557755, -0.008946487680077553, 0.0549168735742569, 0.13756252825260162, -0.04753560200333595, 0.009688236750662327, -0.039669401943683624, 0.036124903708696365, 0.060105979442596436 },
			{ -0.0599958673119545, -0.0733410194516182, -0.10864967852830887, 0.07179517298936844, 0.04432395100593567, -0.019981224089860916, -0.1386810839176178, -0.16097229719161987, 0.18646517395973206, 0.1981819123029709 },
			{ 0.02626263163983822, -0.16698162257671356, 0.00760906096547842, -0.0011086032027378678, 0.0383298397064209, 0.04745782911777496, -0.13726988434791565, -0.08830930292606354, 0.13501855731010437, 0.14893890917301178 },
			{ -0.016494188457727432, -0.19436191022396088, -0.016970815137028694, 0.08684631437063217, -0.2811942398548126, 0.009632491506636143, -0.192710280418396, -0.1366000920534134, 0.21796348690986633, 0.163164883852005 },
			{ 0.062308065593242645, 0.01492165308445692, 0.0153552470728755, 0.029976708814501762, -0.4228358864784241, -0.06113100051879883, -0.3533913195133209, 0.10094892978668213, 0.14024534821510315, 0.1748391091823578 },
			{ 0.12261075526475906, -0.29851922392845154, 0.12951238453388214, 0.006876575294882059, -0.12742264568805695, -0.08287646621465683, -0.445146381855011, 0.10026822984218597, 0.13045088946819305, 0.10118113458156586 },
			{ 0.23733815550804138, -0.2768627405166626, -0.0425892174243927, -0.14627507328987122, -0.12791837751865387, 0.030384354293346405, -0.15948179364204407, 0.13995207846164703, 0.03000488132238388, -0.06190188601613045 },
			{ 0.06591034680604935, -0.26995038986206055, -0.21404893696308136, -0.224683940410614, -0.38097941875457764, 0.25185394287109375, 0.03593702241778374, 0.04458253085613251, 0.07871229946613312, 0.08097289502620697 },
			{ 0.13247926533222198, -0.11330524832010269, -0.31925901770591736, -0.23977795243263245, -0.15741188824176788, 0.11850486695766449, 0.07563594728708267, -0.13858996331691742, 0.20948417484760284, 0.06711411476135254 },
			{ -0.05026999115943909, -0.08009376376867294, -0.12680000066757202, -0.2735033631324768, -0.21136000752449036, 0.11650596559047699, 0.0559229776263237, -0.20087850093841553, 0.06779993325471878, 0.06231119856238365 },
			{ -0.0014390097931027412, -0.24537327885627747, -0.21218116581439972, -0.38765546679496765, 0.06504106521606445, 0.23136627674102783, -0.36030879616737366, -0.18058665096759796, -0.11646197736263275, -0.09639924019575119 },
			{ -0.16305287182331085, -0.2803972661495209, -0.03787180036306381, 0.07246498018503189, 0.07529774308204651, -0.27171874046325684, -0.09670264273881912, 0.09567222744226456, 0.1333620697259903, -0.15175680816173553 },
			{ 0.11446362733840942, -0.0003044966433662921, 0.10058242827653885, 0.08525267988443375, 0.14957088232040405, -0.4477275311946869, -0.2665596306324005, -0.08077685534954071, 0.09760142862796783, -0.007776700891554356 },
			{ -0.07608253508806229, 0.10707297176122665, 0.10314635932445526, 0.025123948231339455, -0.055106405168771744, -0.1852707415819168, -0.0010390495881438255, -0.07536274194717407, 0.009649372659623623, 0.07384361326694489 },
			{ 0.10078956931829453, 0.11015937477350235, 0.05363881587982178, -0.004679666366428137, 0.0794181376695633, -0.07315001636743546, -0.0075134215876460075, -0.11295530200004578, 0.14510604739189148, 0.045321885496377945 },
			{ -0.007439668755978346, -0.05947505682706833, -0.12039949744939804, 0.013964357785880566, 0.0018222610233351588, -0.10797863453626633, 0.023812655359506607, -0.20616522431373596, 0.17632433772087097, 0.15114876627922058 },
			{ -0.01910567469894886, -0.2449168860912323, -0.15462259948253632, -0.08848761022090912, 0.07735256850719452, 0.020668793469667435, 0.055138275027275085, -0.05347844958305359, 0.18407778441905975, 0.17286449670791626 },
			{ -0.09808770567178726, -0.11507466435432434, -0.1812416911125183, 0.0336863249540329, -0.11448360234498978, -0.10260124504566193, -0.0919877290725708, -0.04833211377263069, 0.1986350119113922, 0.09994936734437943 },
			{ -0.0780649408698082, 0.05714783817529678, -0.1223049983382225, 0.12908069789409637, -0.15926136076450348, -0.10295522958040237, -0.2616223692893982, 0.16429367661476135, 0.24752233922481537, 0.16657252609729767 },
			{ 0.09778677672147751, -0.15637509524822235, -0.09159473329782486, 0.02118501625955105, -0.1296359896659851, -0.010471653193235397, -0.17173615097999573, -0.02996484562754631, 0.20529529452323914, 0.14181925356388092 },
			{ 0.007638040464371443, -0.3592284321784973, -0.09187988191843033, -0.012625927105545998, -0.2513570487499237, 0.2393496185541153, 0.005678880959749222, -0.04159103333950043, 0.08927856385707855, -0.05891124904155731 },
			{ 0.005830422975122929, -0.3754076361656189, -0.10216251760721207, -0.1432870775461197, -0.15928374230861664, 0.2978038787841797, 0.09545280784368515, -0.06774812191724777, 0.014259315095841885, -0.05673406645655632 },
			{ 0.1378934234380722, -0.19532933831214905, -0.3423359990119934, -0.14616064727306366, -0.08031116425991058, 0.14905959367752075, 0.12365926802158356, -0.10709195584058762, 0.1359274685382843, -0.15020911395549774 },
			{ -0.05451338738203049, -0.07785703986883163, -0.29299020767211914, -0.10198875516653061, -0.0696888342499733, 0.31213951110839844, 0.15321186184883118, -0.07007866352796555, 0.045422740280628204, -0.2918141186237335 },
			{ -0.3552173674106598, -0.17049872875213623, -0.16445182263851166, -0.42164039611816406, -0.20277734100818634, 0.46834442019462585, -0.28019392490386963, -0.1379098743200302, 0.00042485445737838745, -0.2724108397960663 },
			{ -0.2175159454345703, -0.08638803660869598, 0.024609597399830818, 0.09979937970638275, 0.13954408466815948, -0.11192811280488968, -0.07966361194849014, 0.10932554304599762, 0.05221737176179886, -0.32951363921165466 },
			{ -0.16729234158992767, -0.16693158447742462, 0.2586044371128082, 0.08613155037164688, -0.19626949727535248, 0.030100997537374496, -0.2981066107749939, -0.0309216920286417, 0.1516389697790146, 0.003260015742853284 },
			{ -0.024454886093735695, 0.11274910718202591, 0.09267723560333252, -0.02676374465227127, -0.057417478412389755, -0.15670715272426605, -0.14720579981803894, -0.24606503546237946, 0.18006326258182526, 0.10683544725179672 },
			{ -0.05588209629058838, -0.06865833699703217, 0.03345960006117821, -0.12335432320833206, 0.10342839360237122, -0.22750544548034668, -0.0871695876121521, -0.08944068104028702, 0.22554342448711395, -0.03934653103351593 },
			{ -0.07058975100517273, -0.027869822457432747, -0.031114215031266212, -0.04122920706868172, 0.029836000874638557, -0.11729937791824341, -0.06106305122375488, -0.0853295549750328, 0.002021288499236107, 0.13025283813476562 },
			{ 0.03204357996582985, -0.19086992740631104, -0.09741205722093582, -0.05463419482111931, 0.12102647125720978, 0.06220543384552002, 0.1632947325706482, 0.01600089855492115, 0.06966375559568405, 0.10452193766832352 },
			{ -0.05746651813387871, -0.10878946632146835, -0.0716203823685646, 0.15834417939186096, -0.013028877787292004, -0.005546304862946272, -0.026765087619423866, -0.14584901928901672, 0.11273015290498734, -0.03548217564821243 },
			{ -0.3650493919849396, -0.11796890944242477, -0.03912544623017311, 0.18404430150985718, -0.04024451971054077, 0.0449843555688858, -0.20567303895950317, -0.19832511246204376, 0.1368294060230255, 0.0986434817314148 },
			{ -0.2766037583351135, -0.32575055956840515, -0.24214042723178864, 0.05241752415895462, -0.035144466906785965, 0.09104253351688385, 0.06846369802951813, -0.2490982860326767, 0.15191394090652466, 0.22455237805843353 },
			{ -0.3112993538379669, -0.44971680641174316, -0.26598456501960754, 0.11215532571077347, -0.1971857249736786, 0.1261443793773651, 0.25586938858032227, -0.1353674679994583, 0.1154453381896019, -0.018351247534155846 },
			{ -0.0769679844379425, -0.3860372304916382, -0.2394668161869049, 0.13806237280368805, -0.12130509316921234, 0.13816775381565094, 0.17972375452518463, -0.01745947077870369, 0.0029436831828206778, -0.13996265828609467 },
			{ -0.01797151193022728, -0.11596275866031647, -0.28620168566703796, 0.018194468691945076, 0.13459643721580505, 0.04703832417726517, 0.1655200719833374, -0.11552168428897858, 0.20766404271125793, -0.2540290355682373 },
			{ -0.06303320080041885, 0.018719078972935677, -0.1753968447446823, -0.37634170055389404, 0.03750048577785492, 0.23239456117153168, 0.25614091753959656, -0.1246819943189621, 0.08213547617197037, -0.16480621695518494 },
			{ -0.1878017634153366, -0.04890010878443718, 0.16215822100639343, -0.7219990491867065, -0.0420575849711895, 0.0503368154168129, -0.06737355887889862, -0.3006111979484558, 0.06731951236724854, -0.05918465927243233 },
			{ -0.08268918842077255, 0.1416638046503067, 0.028710862621665, 0.04143943637609482, -0.11894156038761139, 0.0036546317860484123, 0.040334004908800125, 0.24839162826538086, -0.08402284979820251, -0.10989513993263245 },
			{ -0.24243098497390747, 0.11567249149084091, 0.06645946204662323, 0.09998296946287155, -0.09465121477842331, 0.20371794700622559, -0.18277552723884583, -0.1583445519208908, 0.04073068127036095, 0.04975435510277748 },
			{ -0.05848829075694084, -0.06251736730337143, 0.027306606993079185, 0.049510423094034195, 0.0059440904296934605, 0.03759615123271942, -0.1449168175458908, -0.1801205724477768, 0.005611048545688391, 0.059481412172317505 },
			{ 0.06473267078399658, -0.11000283062458038, 0.02133510261774063, -0.00533540453761816, 0.0804470106959343, 0.03364165872335434, -0.14212660491466522, 0.13308970630168915, -0.06551145017147064, -0.07206851989030838 },
			{ 0.07135484367609024, -0.3080369532108307, 0.11033834517002106, -0.151143878698349, 0.03669726848602295, 0.0059387837536633015, -0.11330095678567886, -0.0949854776263237, 0.03569493442773819, 0.04143491014838219 },
			{ 0.09944567084312439, -0.19923505187034607, 0.07936252653598785, -0.014822380617260933, -0.09087517857551575, 0.06887663900852203, 0.04064663127064705, -0.11357128620147705, 0.020848674699664116, 0.01989654265344143 },
			{ -0.14094097912311554, -0.1905537098646164, -0.018621165305376053, 0.029366156086325645, -0.10978426784276962, 0.10934465378522873, 0.01961851306259632, -0.2572139501571655, 0.14843833446502686, 0.1098337173461914 },
			{ -0.4300394058227539, -0.026462113484740257, 0.10897588729858398, 0.13300096988677979, 0.012813840061426163, 0.07210661470890045, -0.12197737395763397, -0.3355317711830139, 0.04523268714547157, 0.1543416529893875 },
			{ -0.4342637062072754, -0.1753862351179123, -0.03562204912304878, 0.17196248471736908, 0.007102662697434425, 0.017394976690411568, 0.10609422624111176, -0.44063881039619446, 0.0032212117221206427, 0.09000273048877716 },
			{ -0.23566628992557526, -0.40240585803985596, -0.1092875748872757, 0.20117178559303284, -0.012090107426047325, 0.019004564732313156, 0.18061530590057373, -0.2549586892127991, 0.07320918887853622, -0.09758608788251877 },
			{ -0.11438432335853577, -0.5368998050689697, -0.18111290037631989, 0.05533864349126816, 0.09427652508020401, -0.01801535300910473, 0.1252632737159729, 0.048602472990751266, 0.17600880563259125, -0.28426697850227356 },
			{ -0.1293957531452179, -0.31083187460899353, -0.17551074922084808, -0.046151887625455856, 0.018023094162344933, -0.05132471024990082, 0.12450064718723297, 0.08739431947469711, 0.14312942326068878, -0.3022402226924896 },
			{ -0.1774621456861496, -0.020999740809202194, 0.16207072138786316, -0.1532183438539505, 0.10998474061489105, -0.03839226812124252, 0.04062914103269577, -0.08760815858840942, 0.1576908677816391, -0.3379024863243103 },
			{ -0.16752536594867706, -0.1576520800590515, 0.33623504638671875, -0.4012766182422638, -0.0020594652742147446, -0.005985011346638203, 0.030693193897604942, -0.008203516714274883, -0.46005967259407043, -0.3176841139793396 },
			{ 0.009936558082699776, 0.12468013167381287, -0.08066285401582718, 0.056022174656391144, 0.04264756664633751, -0.2026117742061615, -0.034091826528310776, 0.07602572441101074, -0.30945679545402527, 0.05484011396765709 },
			{ -0.05541721358895302, -0.059740714728832245, -0.036641065031290054, 0.09299875050783157, 0.11560993641614914, 0.16860266029834747, -0.005639692768454552, -0.08072850853204727, -0.17457315325737, -0.21351011097431183 },
			{ -0.08462616801261902, 0.16336578130722046, -0.07407791167497635, 0.11225929111242294, 0.02770717442035675, 0.2052796632051468, -0.16806423664093018, -0.027620403096079826, -0.0447511225938797, -0.20120225846767426 },
			{ -0.03583737835288048, 0.011742171831429005, 0.0779753178358078, 0.009216159582138062, -0.12068076431751251, 0.12272818386554718, -0.08550002425909042, 0.09996055066585541, -0.05572109669446945, -0.09762998670339584 },
			{ 0.08139000833034515, -0.1935642957687378, -0.046499695628881454, 0.004430161789059639, -0.04087101295590401, 0.09563148766756058, 0.034361280500888824, 0.02166781760752201, 0.0197831429541111, -0.08758436888456345 },
			{ -0.01031307689845562, -0.2055046558380127, 0.023718619719147682, -0.03101527690887451, -0.06897205114364624, 0.053620196878910065, 0.0960121750831604, -0.08612482249736786, 0.08481995016336441, -0.0259847454726696 },
			{ -0.18023481965065002, -0.13870278000831604, 0.059089597314596176, 0.12182939797639847, -0.12808464467525482, -0.1235945075750351, 0.044827524572610855, -0.23674121499061584, 0.0694698840379715, 0.17969255149364471 },
			{ -0.4028805196285248, -0.21155846118927002, -0.02412525564432144, 0.08819488435983658, 0.16931293904781342, -0.037476398050785065, 0.039255641400814056, -0.29630008339881897, 0.08384322375059128, 0.07729781419038773 },
			{ -0.17068348824977875, -0.3301766514778137, -0.08920937776565552, 0.06393568962812424, 0.1032651886343956, 0.05134566128253937, 0.12287861108779907, -0.14480538666248322, 0.09249984472990036, 0.01028808206319809 },
			{ -0.09206192940473557, -0.5500891804695129, -0.12009000033140182, 0.1668170690536499, 0.08593568205833435, -0.06318232417106628, 0.18433554470539093, 0.006620150059461594, 0.24214552342891693, -0.1860833615064621 },
			{ -0.0864986851811409, -0.2500717341899872, -0.031545210629701614, 0.07134510576725006, 0.13239224255084991, -0.02876349724829197, 0.003756123362109065, 0.020223913714289665, 0.10722629725933075, -0.43690720200538635 },
			{ -0.09693785756826401, -0.06249113008379936, 0.09286198019981384, -0.06375274807214737, 0.20010022819042206, -0.09726651012897491, -0.029037345200777054, 0.06595410406589508, -0.011731402017176151, -0.4324358403682709 },
			{ -0.38759398460388184, 0.00474081514403224, 0.28348308801651, -0.30464836955070496, 0.0714927390217781, -0.08617021888494492, -0.058976005762815475, -0.10882386565208435, -0.026438472792506218, -0.20798875391483307 },
			{ -0.1592538207769394, 0.04026714712381363, 0.25673818588256836, 0.06995373964309692, 0.026507306843996048, 0.07754036039113998, -0.13976246118545532, -0.20349019765853882, 0.009366142563521862, -0.7054532766342163 },
			{ 0.02806781232357025, 0.2808937728404999, 0.18577389419078827, -0.06656250357627869, -0.00014815742906648666, -0.013616528362035751, -0.2756290137767792, -0.21186897158622742, -0.2078630030155182, -0.014845490455627441 },
			{ 0.01930331438779831, 0.24849550426006317, -0.07030630111694336, -0.03416795656085014, 0.005816800519824028, 0.11433678865432739, -0.13321803510189056, -0.07207700610160828, -0.20608529448509216, -0.06663112342357635 },
			{ -0.13789686560630798, -0.027259469032287598, -0.16864150762557983, 0.0803828164935112, 0.06362596154212952, 0.11902350932359695, -0.10042615979909897, 0.1217113584280014, -0.004911372438073158, 0.021167606115341187 },
			{ -0.16132451593875885, -0.18102386593818665, -0.15252670645713806, -0.006628374103456736, 0.05853446573019028, 0.035547856241464615, 0.03405096381902695, 0.13431327044963837, -0.020887749269604683, -0.08995833247900009 },
			{ -0.07920258492231369, -0.24039918184280396, 0.07189217209815979, 0.038322076201438904, -0.14726844429969788, 0.06613825261592865, -0.014822162687778473, -0.06575684994459152, 0.11720750480890274, -0.03594697266817093 },
			{ 0.004233102779835463, -0.02622413821518421, 0.016721829771995544, 0.10183831304311752, -0.1376456618309021, 0.07839950919151306, -0.031643401831388474, -0.14140912890434265, 0.017410600557923317, 0.08881669491529465 },
			{ 0.07061237841844559, -0.19990162551403046, -0.0636647492647171, -0.040976472198963165, -0.013068410567939281, -0.02550356648862362, -0.040003348141908646, -0.17054536938667297, 0.06996846944093704, 0.23578430712223053 },
			{ -0.004206327721476555, -0.322280615568161, -0.11262480169534683, 0.08641199767589569, 0.08031081408262253, -0.06365018337965012, -0.06109429523348808, -0.08612091094255447, 0.05702075734734535, 0.177507683634758 },
			{ -0.09415550529956818, -0.3398406505584717, -0.016528382897377014, 0.10699198395013809, 0.06456632912158966, 0.01015157625079155, 0.010688938200473785, -0.012218409217894077, 0.07346102595329285, -0.14285311102867126 },
			{ 0.059580739587545395, -0.07230368256568909, 0.15004004538059235, 0.215799018740654, 0.06130364537239075, -0.13833212852478027, 0.025129415094852448, 0.025341834872961044, 0.10081136971712112, -0.3584902584552765 },
			{ -0.0905199870467186, 0.15829285979270935, 0.09133733063936234, -0.09143996983766556, 0.15178921818733215, -0.21227844059467316, 0.03650404512882233, 0.21616385877132416, 0.13352367281913757, -0.343016654253006 },
			{ -0.05469752475619316, 0.14483937621116638, 0.2178029865026474, -0.1724873036146164, 0.16745513677597046, -0.10145261138677597, -0.04663185402750969, 0.11446677148342133, -0.0638299435377121, -0.3340359628200531 },
			{ -0.13617411255836487, 0.19931559264659882, 0.18148331344127655, -0.24757938086986542, 0.06165188550949097, -0.026500018313527107, -0.17144431173801422, -0.012998810969293118, -0.030839160084724426, -0.04145810380578041 },
			{ -0.14199024438858032, -0.02099486254155636, 0.17269288003444672, -0.23320254683494568, -0.06957235187292099, -0.04168234393000603, -0.17203818261623383, 0.0007906188839115202, 0.04967150837182999, -0.16226857900619507 },
			{ -0.04795624315738678, -0.07818209379911423, -0.032563794404268265, 0.13322976231575012, 0.07982455939054489, -0.02124478854238987, -0.12485674023628235, 0.06654447317123413, -0.0008993491646833718, -0.26956698298454285 },
			{ -0.13571088016033173, -0.09608809649944305, 0.02616523951292038, 0.2553994059562683, -0.04672544077038765, 0.12904036045074463, 0.02368876338005066, 0.05034543573856354, -0.2021706998348236, -0.21196508407592773 },
			{ -0.034975502640008926, 0.02725067548453808, 0.0030942915473133326, 0.026696400716900826, 0.139081671833992, 0.08735868334770203, -0.23173609375953674, 0.105894535779953, 0.02171047404408455, 0.008789019659161568 },
			{ -0.10966623574495316, 0.02399761788547039, -0.025042306631803513, 0.044571105390787125, 0.0053513129241764545, 0.003670577658340335, -0.09196308255195618, 0.07376634329557419, 0.09394759684801102, -0.02960955910384655 },
			{ -0.09541543573141098, 0.051005180925130844, 0.011042313650250435, 0.026925325393676758, -0.07228061556816101, 0.08855025470256805, -0.016657322645187378, -0.2560892701148987, 0.037285227328538895, -0.07092069834470749 },
			{ 0.07924845069646835, 0.054488878697156906, -0.15735846757888794, 0.021539578214287758, -0.1087644025683403, 0.11308561265468597, -0.014256246387958527, -0.18773609399795532, -0.016860084608197212, -0.02950216643512249 },
			{ 0.09125068038702011, 0.016948267817497253, 0.005357727408409119, 0.055057283490896225, -0.11496308445930481, 0.14142096042633057, -0.028475388884544373, -0.17221923172473907, -0.10541541129350662, 0.09735284745693207 },
			{ 0.20879049599170685, -0.0976458266377449, -0.04980222508311272, 0.1546626091003418, -0.05775599554181099, 0.06431982666254044, 0.04914902150630951, -0.21246281266212463, -0.006770055275410414, 0.005780324339866638 },
			{ 0.02524937316775322, -0.07323923707008362, 0.06592494994401932, 0.10040133446455002, -0.1311379075050354, 0.07967469096183777, 0.10179702937602997, -0.08648913353681564, 0.0821743831038475, -0.2805195152759552 },
			{ 0.005614332854747772, 0.16000260412693024, 0.19504348933696747, -0.0029430969152599573, -0.08200790733098984, -0.07535893470048904, -0.02060723677277565, -0.2218024879693985, 0.0860605239868164, -0.17666107416152954 },
			{ 0.07794304192066193, 0.2117953896522522, 0.24912726879119873, -0.23688440024852753, -0.0607173889875412, 0.011791587807238102, -0.01908041350543499, -0.08218848705291748, 0.04004155099391937, -0.1434134542942047 },
			{ -0.0729135125875473, 0.18928393721580505, 0.27587494254112244, -0.22058288753032684, 0.06697755306959152, -0.07544726878404617, -0.00039855059003457427, -0.06003624200820923, -0.08413378149271011, -0.12776519358158112 },
			{ -0.2878533899784088, 0.13121356070041656, 0.18039563298225403, -0.3290499150753021, -0.07917811721563339, -0.0302421934902668, -0.026408785954117775, -0.19061395525932312, -0.3174827992916107, 0.06684020906686783 },
			{ -0.2928345799446106, 0.16827960312366486, 0.2196105271577835, -0.09733252972364426, -0.2128656953573227, -0.16509824991226196, 0.043665967881679535, -0.151744082570076, -0.2450929880142212, 0.4058286249637604 },
			{ 0.08242660760879517, 0.12620919942855835, -0.005619885865598917, 0.016789855435490608, -0.09047793596982956, -0.19007781147956848, -0.1739097237586975, 0.14439524710178375, -0.03601539507508278, -0.2621491849422455 },
			{ -0.05500137433409691, -0.02500114217400551, 0.018765795975923538, 0.08506225049495697, 0.05508798733353615, -0.08227163553237915, -0.02426864579319954, -0.027620812878012657, -0.015622192062437534, 0.015098259784281254 },
			{ -0.2290908396244049, 0.18041042983531952, -0.08320870995521545, 0.07806222885847092, -0.016507169231772423, 0.10224000364542007, -0.1641036570072174, -0.021243974566459656, 0.12376531958580017, -0.15130212903022766 },
			{ -0.09744944423437119, 0.14695651829242706, -0.09581112861633301, 0.1411706656217575, 0.0008697068551555276, 0.07071014493703842, -0.047108933329582214, 0.0823250263929367, -0.21722915768623352, -0.11928310245275497 },
			{ 0.09844352304935455, 0.0408293753862381, -0.09954969584941864, 0.035044822841882706, -0.09856317192316055, 0.01247247215360403, -0.12790198624134064, 0.03550934046506882, -0.015683576464653015, -0.053130507469177246 },
			{ 0.15839557349681854, -0.04094704985618591, -0.11764682084321976, 0.05229731649160385, -0.1327463984489441, 0.10818527638912201, 0.09780208766460419, -0.10831544548273087, -0.09205701947212219, 0.055524975061416626 },
			{ 0.07168067991733551, -0.044875361025333405, -0.0740734115242958, 0.14978955686092377, -0.13119184970855713, 0.09854358434677124, -0.08803367614746094, -0.1973913609981537, 0.02177693136036396, 0.03579436615109444 },
			{ 0.10834338515996933, -0.1793876439332962, -0.061750419437885284, -0.0536687932908535, -0.2359190136194229, 0.155389204621315, 0.012913455255329609, -0.17168189585208893, 0.09943567961454391, -0.025222880765795708 },
			{ 0.14410103857517242, -0.043042026460170746, 0.08354496210813522, 0.04699910804629326, -0.3343740403652191, 0.06856442242860794, 0.09610278904438019, -0.20918221771717072, 0.04750308766961098, -0.001595129957422614 },
			{ 0.16490256786346436, 0.06954380869865417, 0.2154184877872467, 0.05618608742952347, -0.1448613703250885, 0.025675127282738686, 0.09203747659921646, -0.18128937482833862, -0.08054480701684952, -0.10589902102947235 },
			{ 0.13489148020744324, 0.12384450435638428, 0.33768439292907715, -0.2000022679567337, -0.10449372231960297, -0.08177869766950607, 0.07712920755147934, -0.1877823919057846, -0.04439829662442207, -0.09726575016975403 },
			{ 0.1567520946264267, 0.05964875966310501, 0.27817103266716003, -0.17915533483028412, 0.1582622081041336, -0.11551263928413391, 0.032223619520664215, -0.3003355860710144, -0.09696459770202637, -0.16632139682769775 },
			{ -0.013295753858983517, -0.1169218197464943, 0.21915094554424286, -0.2508765161037445, 0.17448760569095612, -0.17972232401371002, -0.1628321260213852, -0.3958582878112793, -0.011810592375695705, 0.14739149808883667 },
			{ -0.10172098129987717, -0.031065303832292557, 0.2825639247894287, -0.27024880051612854, -0.0600796677172184, 0.1127472072839737, -0.21360695362091064, -0.5007198452949524, -0.26691025495529175, 0.06850641220808029 },
			{ 0.022930439561605453, 0.0788865014910698, 0.147454634308815, -0.011976078152656555, -0.16465701162815094, -0.12352827191352844, -0.20223087072372437, -0.05105322226881981, -0.0957665890455246, -0.09811243414878845 },
			{ -0.017547618597745895, 0.03688174486160278, 0.15723289549350739, -0.004190970212221146, -0.1347677856683731, -0.08237432688474655, -0.14149171113967896, -0.10261625051498413, 0.004048640374094248, -0.01628558151423931 },
			{ -0.05741198733448982, -0.06595084816217422, 0.038579296320676804, 0.02227712608873844, -0.1243816539645195, -0.005318738520145416, -0.13087023794651031, 0.1642279028892517, -0.1031770184636116, -0.051480334252119064 },
			{ 0.06690281629562378, 0.05702750384807587, -0.03028585948050022, 0.10790684819221497, -0.0733121931552887, 0.08734340965747833, -0.06944406032562256, 0.17244037985801697, -0.2726907730102539, 0.04642093554139137 },
			{ 0.059418611228466034, -0.08095461130142212, -0.13218720257282257, 0.13744238018989563, 0.0168922021985054, 0.021104317158460617, -0.07106460630893707, 0.10482896864414215, -0.21892601251602173, 0.03826281055808067 },
			{ 0.1416926383972168, -0.16634926199913025, -0.043461304157972336, 0.1049061268568039, 0.013573918491601944, 0.11256774514913559, -0.030195515602827072, -0.11455292254686356, 0.06702492386102676, -0.026457209140062332 },
			{ 0.06197449937462807, -0.2856947183609009, -0.05897309631109238, 0.12153279781341553, -0.129670187830925, 0.08355455845594406, -0.06831115484237671, -0.27274641394615173, 0.11630568653345108, -0.08099911361932755 },
			{ 0.13454695045948029, -0.06434345990419388, -0.011302188038825989, 0.1560194194316864, -0.24087835848331451, 0.03265079855918884, -0.0406377911567688, -0.21899767220020294, 0.17601493000984192, -0.16728687286376953 },
			{ 0.10317671298980713, -0.13794638216495514, 0.10228122770786285, 0.0030368617735803127, -0.1519327461719513, 0.13306745886802673, 0.11897353827953339, -0.19520382583141327, 0.075862817466259, -0.18475139141082764 },
			{ 0.05443679913878441, -0.0269478652626276, 0.20042160153388977, 0.0925421491265297, 0.0456005223095417, 0.004145282320678234, 0.16797003149986267, -0.22313626110553741, 0.11143452674150467, -0.06593868136405945 },
			{ -0.02738085947930813, 0.14112402498722076, 0.2629587650299072, -0.0199438463896513, 0.015492923557758331, 0.0003016246482729912, -0.006384826730936766, -0.22138462960720062, -0.05027967691421509, -0.02907123602926731 },
			{ -0.16990453004837036, 0.08520667254924774, 0.10899357497692108, -0.20719532668590546, -0.011279512196779251, -0.015959134325385094, -0.2213393896818161, -0.16626159846782684, 0.022468704730272293, 0.1262463629245758 },
			{ -0.28748854994773865, -0.024416470900177956, 0.08440878987312317, -0.32339340448379517, 0.06828853487968445, 0.006894437596201897, -0.43969660997390747, -0.22444404661655426, -0.15476633608341217, 0.25813278555870056 },
			{ -0.10330677032470703, -0.21401305496692657, 0.06767434626817703, -0.01608947664499283, -0.011203775182366371, 0.020822469145059586, -0.25167542695999146, -0.35901308059692383, -0.20164337754249573, 0.13504844903945923 },
			{ -0.18666090071201324, -0.14202271401882172, -0.13675417006015778, -0.0424945130944252, -0.20261675119400024, 0.0015413288492709398, 0.03207778558135033, 0.13894888758659363, -0.07168622314929962, -0.019396688789129257 },
			{ 0.06808548420667648, 0.10610435158014297, -0.06966006010770798, 0.08859017491340637, 0.02643638662993908, -0.1534215807914734, -0.45325371623039246, 0.19871295988559723, -0.25653210282325745, 0.06650599092245102 },
			{ -0.1332380324602127, -0.03355821222066879, -0.04529205709695816, 0.08855517953634262, 0.0045639690943062305, -0.08120029419660568, -0.1314881294965744, 0.07412616163492203, -0.056958138942718506, -0.032093606889247894 },
			{ -0.03623180091381073, -0.0514821819961071, -0.1613316684961319, 0.22775334119796753, 0.008754630573093891, 0.021092895418405533, -0.1904992163181305, -0.09872517734766006, -0.05397867411375046, 0.10515737533569336 },
			{ -0.15765289962291718, 0.08102605491876602, -0.1382734477519989, 0.28329578042030334, -0.03169480338692665, -0.09911679476499557, -0.2755201756954193, -0.010428794659674168, 0.020910918712615967, -0.048582352697849274 },
			{ -0.11824481189250946, -0.030197521671652794, -0.12728333473205566, 0.3030679225921631, -0.07142160832881927, 0.10415321588516235, -0.16370706260204315, -0.10804552584886551, 0.007881704717874527, -0.07714392989873886 },
			{ -0.19162677228450775, 0.024343617260456085, -0.13125434517860413, 0.32164037227630615, -0.16608615219593048, 0.18196658790111542, -0.159074068069458, -0.06676504760980606, 0.015257335267961025, -0.1190134659409523 },
			{ -0.35094988346099854, 0.06769935041666031, -0.25892144441604614, 0.2026287466287613, 0.048802778124809265, 0.23694390058517456, -0.18024703860282898, -0.005687493830919266, -0.09285903722047806, -0.16758838295936584 },
			{ -0.41923534870147705, 0.2970680296421051, 0.021202392876148224, 0.16294744610786438, -0.0687205046415329, 0.042419254779815674, -0.1804620325565338, -0.06581664085388184, -0.42775312066078186, 0.1799854040145874 },
			{ -0.2749330997467041, -0.003956073895096779, 0.02564605511724949, 0.30077749490737915, 0.06931744515895844, 0.28081244230270386, -0.3049089014530182, -0.2561642825603485, -0.3023814558982849, 0.06518904864788055 },
			{ -0.2630216181278229, -0.5239695906639099, -0.03434613719582558, -0.0022124566603451967, -0.021823318675160408, 0.18163035809993744, -0.3360289931297302, -0.010504655539989471, -0.27841103076934814, -0.11595477908849716 },
			{ -0.20932061970233917, -0.2868334650993347, 0.0036581445019692183, -0.2444193959236145, -0.2948777675628662, 0.03502607345581055, -0.2059600055217743, 0.1621139645576477, -0.6953087449073792, -0.013083180412650108 },
			{ -0.20160351693630219, -0.12703867256641388, 0.07619956135749817, -0.24412761628627777, 0.01348578929901123, 0.03918520361185074, -0.05905516818165779, 0.16390173137187958, -0.49737799167633057, 0.06213102862238884 },
			{ -0.19616107642650604, -0.13543610274791718, -0.22584588825702667, -0.10542486608028412, 0.10275452584028244, -0.11416419595479965, -0.07296525686979294, 0.084256611764431, -0.0681392028927803, 0.11978300660848618 },
			{ -0.05326726660132408, -0.02006758190691471, -0.07895691692829132, 0.05311813950538635, -0.007598248776048422, 0.05055524408817291, -0.04259343445301056, 0.04966128617525101, -0.06320995837450027, -0.029960382729768753 },
			{ -0.05470739305019379, 0.0492495633661747, -0.12777340412139893, 0.09502218663692474, -0.12461908906698227, -0.07072383165359497, 0.08943039178848267, -0.07081963121891022, -0.06538654863834381, -0.08971992880105972 },
			{ -0.1262294054031372, -0.04981730878353119, -0.015294991433620453, 0.15008385479450226, -0.2160869538784027, -0.08668409287929535, 0.20433272421360016, -0.2904537618160248, -0.17610731720924377, -0.01943017914891243 },
			{ 0.04274643212556839, -0.020183345302939415, 0.05974366143345833, 0.11109336465597153, -0.23983323574066162, -0.0037397625856101513, 0.16136164963245392, -0.3456881046295166, -0.09278113394975662, -0.2226935774087906 },
			{ -0.03904842585325241, 0.07253199815750122, 0.2097080647945404, -0.03691453859210014, -0.43370506167411804, 0.00307880318723619, 0.26592621207237244, -0.4384899139404297, 0.04353221878409386, -0.310703843832016 },
			{ -0.10700363665819168, 0.20827563107013702, -0.045617200434207916, 0.10898101329803467, -0.310822069644928, 0.030646512284874916, 0.32497459650039673, -0.18223468959331512, -0.20195722579956055, -0.314525306224823 },
			{ -0.08814604580402374, 0.14702381193637848, -0.08373908698558807, 0.03015095740556717, -0.15531699359416962, -0.060610707849264145, 0.3123214840888977, -0.22107847034931183, -0.019343821331858635, -0.18826274573802948 },
			{ -0.14868369698524475, 0.28396981954574585, -0.07195509225130081, -0.09440029412508011, -0.10929244011640549, -0.029368899762630463, 0.0948454886674881, -0.3484738767147064, 0.07742771506309509, -0.18863049149513245 },
			{ -0.00903354026377201, -0.04452504590153694, 0.1468876153230667, -0.1707667112350464, -0.14148572087287903, 0.0013875660952180624, 0.2435460388660431, -0.6706637740135193, 0.02479824423789978, -0.2297048568725586 },
			{ -0.24591217935085297, 0.16932515799999237, -0.11714660376310349, -0.04913439229130745, -0.3300054371356964, 0.16850505769252777, 0.22251957654953003, -0.2607761025428772, -0.21738159656524658, -0.08915507048368454 },
			{ -0.21621161699295044, -0.3086695373058319, 0.07824912667274475, -0.11719775199890137, -0.11745741218328476, -0.08996988087892532, 0.2848529517650604, 0.07205115258693695, -0.018544288352131844, -0.10560913383960724 },
			{ -0.12085147202014923, 0.07350669056177139, -0.13839247822761536, -0.1571701467037201, -0.17277082800865173, 0.12804469466209412, 0.291461318731308, -0.2633872926235199, -0.14283321797847748, -0.11260230839252472 },
			{ -0.17071646451950073, -0.18735721707344055, 0.17480099201202393, -0.0342743955552578, -0.22900886833667755, -0.014460655860602856, 0.12882716953754425, -0.2012309730052948, 0.07642383128404617, -0.1775805801153183 },
			{ -0.005073205102235079, -0.08083231747150421, -0.001787872868590057, -0.2526836395263672, -0.158946692943573, -0.3536347448825836, 0.15084901452064514, 0.001585905672982335, 0.14024341106414795, -0.0457506999373436 },
			{ 0.03383539617061615, -0.0299198180437088, -0.0650109276175499, 0.08298981189727783, 0.02932063490152359, -0.04349338263273239, -0.046202242374420166, -0.00768081471323967, -0.019736723974347115, -0.030270757153630257 },
			{ 0.028922270983457565, -0.006014282815158367, -0.025795241817831993, 0.0902455747127533, -0.05673901364207268, -0.013625209219753742, -0.01763475500047207, -0.06742986291646957, -0.1275557577610016, -0.09084317088127136 },
			{ -0.07299571484327316, 0.053954023867845535, -0.10406338423490524, 0.045614730566740036, -0.001489338232204318, 0.08531952649354935, 0.2361581027507782, 0.005933025851845741, -0.17105740308761597, -0.2926292419433594 },
			{ -0.051395587623119354, 0.03397171199321747, 0.05695135518908501, 0.08358050137758255, -0.004446250852197409, -0.20679472386837006, 0.18564492464065552, -0.19058066606521606, 0.03095204383134842, -0.16407370567321777 },
			{ -0.1478574573993683, 0.24950896203517914, -0.007039803080260754, -0.1125100627541542, -0.04304235428571701, -0.0005136484978720546, 0.3452685475349426, -0.20196153223514557, -0.18447181582450867, -0.2700168192386627 },
			{ -0.09183841943740845, 0.19220604002475739, -0.07032999396324158, 0.10228591412305832, 0.09312315285205841, -0.16102266311645508, 0.2857072353363037, -0.07693029195070267, -0.12809935212135315, -0.10490626841783524 },
			{ -0.0962599590420723, 0.2546718120574951, -0.09072352200746536, -0.11374974250793457, 0.08883928507566452, -0.07189861685037613, 0.27245137095451355, -0.1899193674325943, -0.1373087763786316, -0.4176540672779083 },
			{ -0.14453308284282684, 0.1112935021519661, -0.10774903744459152, -0.10635077953338623, 0.03519832342863083, 0.006805329583585262, 0.2710079252719879, -0.11346586793661118, -0.13354207575321198, -0.1373004913330078 },
			{ -0.0388089120388031, 0.1635013073682785, 0.10156495124101639, -0.23308385908603668, 0.15103714168071747, 0.020456118509173393, -0.06435799598693848, -0.2026604413986206, 0.2008100152015686, -0.0667453333735466 },
			{ -0.028381871059536934, 0.1331644207239151, -0.125166654586792, -0.10541713237762451, -0.08220542967319489, 0.2523424029350281, 0.0649447813630104, -0.28997817635536194, -0.0836401879787445, -0.1278686672449112 },
			{ -0.289183109998703, 0.0572873055934906, 0.2094506323337555, -0.025699840858578682, -0.06600092351436615, -0.023260649293661118, -0.041643332690000534, -0.1348659247159958, 0.1344856172800064, -0.0034690736792981625 },
			{ -0.014778617769479752, 0.10730069875717163, -0.10765723884105682, 0.050974298268556595, -0.035750336945056915, 0.0398365743458271, 0.07117728888988495, -0.5984328985214233, -0.0500195287168026, -0.10602079331874847 },
			{ -0.09289785474538803, -0.06666813045740128, 0.11082929372787476, -0.03592390567064285, 0.0561336986720562, 0.0240827314555645, -0.05055999755859375, -0.03462826460599899, 0.09157954901456833, -0.06591038405895233 },
			{ -0.06703522801399231, 0.023628652095794678, 0.10006345808506012, 0.1089179739356041, 0.185169517993927, 0.03172139823436737, 0.15075133740901947, -0.4207443296909332, -0.08520134538412094, -0.368594765663147 },
			{ -0.10714676231145859, -0.06304358690977097, 0.044050320982933044, 0.02137007750570774, 0.03072514571249485, -0.029875487089157104, -0.04226463660597801, 0.10213413089513779, -0.04793613776564598, -0.17322403192520142 },
			{ -0.003328082151710987, 0.10806667804718018, -0.11262302845716476, -0.049088478088378906, -0.1869581639766693, -0.03270510956645012, 0.15289153158664703, 0.037202052772045135, 0.00312950205989182, -0.2013794332742691 },
			{ -0.13212668895721436, 0.06590846180915833, -0.17974737286567688, -0.06008143350481987, 0.020065555348992348, 0.17533564567565918, 0.21994704008102417, 0.2711813151836395, -0.22286580502986908, -0.33778801560401917 },
			{ -0.04126540198922157, 0.1008753702044487, -0.17566892504692078, 0.18139226734638214, -0.03945312649011612, -0.13503818213939667, 0.15138496458530426, 0.15000762045383453, -0.1071896031498909, -0.3300616443157196 },
			{ -0.20124661922454834, 0.20767150819301605, -0.14339080452919006, -0.045816320925951004, 0.20537012815475464, 0.15606100857257843, 0.24471502006053925, 0.1082509383559227, -0.19929377734661102, -0.5707187056541443 },
			{ -0.20912453532218933, 0.1289997547864914, -0.04204264655709267, 0.05766483396291733, 0.41873428225517273, 0.14672742784023285, 0.0957164540886879, 0.02825409173965454, -0.25073519349098206, -0.5178391933441162 },
			{ -0.11789828538894653, 0.2285582572221756, -0.13683770596981049, -5.5380340199917555e-05, 0.4321048855781555, 0.07301213592290878, 0.07493960112333298, -0.09986456483602524, -0.1296403557062149, -0.3995322585105896 },
			{ -0.1326458901166916, 0.15041275322437286, 0.011993514373898506, -0.042504094541072845, 0.3650294244289398, 0.07397837936878204, 0.020352885127067566, -0.022388355806469917, -0.16248668730258942, -0.2850039303302765 },
			{ -0.226826474070549, 0.09462377429008484, 0.009359927847981453, -0.04780541732907295, 0.2761419415473938, -0.06730194389820099, -0.1323430985212326, 0.08362269401550293, 0.08955512195825577, -0.16444207727909088 },
			{ -0.13937225937843323, -0.04409664124250412, 0.12408043444156647, 0.026131508871912956, 0.19269703328609467, 0.05854886397719383, -0.129777193069458, -0.16891518235206604, -0.00262317038141191, -0.20734542608261108 },
			{ -0.18548151850700378, 0.014881497249007225, 0.1596674770116806, 0.07973258942365646, 0.03891857713460922, -0.06490898877382278, -0.09665795415639877, 0.0587957426905632, 0.04677758365869522, 0.03244007006287575 },
			{ 0.006945376750081778, -0.0005923380958847702, -0.004031754098832607, 0.01030787918716669, 0.10926497727632523, 0.0033696626778692007, -0.07464636862277985, -0.08355539292097092, -0.02956119365990162, -0.13073042035102844 },
			{ 0.06646595895290375, -0.029840903356671333, 0.24384209513664246, 0.03229547664523125, -0.0968322679400444, -0.11189276725053787, -0.17876893281936646, -0.0404302254319191, 0.24921584129333496, 0.12144874036312103 },
			{ -0.09407749772071838, 0.08771417289972305, -0.08742691576480865, 0.15036721527576447, 0.04273120313882828, 0.0005488567403517663, 0.08207470178604126, -0.08858659863471985, -0.0951474979519844, -0.03982231020927429 },
			{ -0.08795579522848129, -0.04405560344457626, 0.027517732232809067, 0.030092131346464157, -0.05757615715265274, 0.03194098919630051, -0.04162636771798134, 0.13367941975593567, -0.08751673996448517, -0.20413170754909515 },
			{ -0.03111228719353676, -0.09764957427978516, -0.1067516952753067, -0.0728072002530098, -0.1282651126384735, 0.014853375032544136, 0.0396234504878521, 0.1491248458623886, -0.11211563646793365, -0.17820842564105988 },
			{ -0.07243122905492783, 0.045037973672151566, -0.006881286855787039, -0.1558161973953247, 0.13487736880779266, 0.1842832863330841, 0.043448176234960556, 0.06893602758646011, -0.2634662985801697, -0.35575002431869507 },
			{ -0.0771670937538147, 0.05872778967022896, -0.262835294008255, 0.018391331657767296, 0.11781799793243408, -0.050357427448034286, 0.03870345279574394, 0.307755708694458, -0.04521063342690468, -0.3743671178817749 },
			{ -0.1958457976579666, 0.1594393402338028, -0.015369710512459278, 0.0029854283202439547, 0.36729663610458374, 0.12491457164287567, 0.09017124772071838, 0.15361447632312775, -0.21854443848133087, -0.4855957627296448 },
			{ -0.100395068526268, 0.12741564214229584, 0.02298753336071968, -0.05789218842983246, 0.24852779507637024, 0.14698362350463867, -0.012334255501627922, 0.1123327985405922, -0.15995901823043823, -0.40447449684143066 },
			{ -0.0887899100780487, 0.0770437940955162, 0.06732050329446793, 0.04231635108590126, 0.2825329601764679, 0.084602490067482, -0.11599580198526382, -0.09268265217542648, -0.12025655806064606, -0.4101596772670746 },
			{ -0.04380345344543457, 0.07867240160703659, 0.041867177933454514, -0.048944141715765, 0.10261644423007965, -0.09305321425199509, -0.02271990478038788, -0.016502179205417633, 0.018654702231287956, -0.048000022768974304 },
			{ -0.06142687797546387, -0.07276472449302673, 0.1307060718536377, -0.04400316998362541, 0.12236674875020981, 0.008228468708693981, -0.07135120034217834, 0.041994113475084305, 0.06652621924877167, -0.06400302052497864 },
			{ -0.11048237234354019, -0.09882071614265442, 0.1336165964603424, 0.07214363664388657, -0.08570269495248795, -0.06778278201818466, -0.02771187201142311, -0.07234110683202744, 0.025284994393587112, 0.06635267287492752 },
			{ 0.013001767918467522, -0.11466788500547409, 0.03493158146739006, 0.06025229021906853, -0.06322439759969711, -0.11800393462181091, -0.03313999995589256, -0.030697347596287727, 0.03223368525505066, 0.1383683830499649 },
			{ 0.12445032596588135, -0.10251162201166153, 0.1357932984828949, 0.09315422922372818, -0.16226346790790558, -0.12485263496637344, -0.10266104340553284, -0.10913717746734619, 0.16733209788799286, 0.0546765998005867 },
			{ -0.07999872416257858, 0.013386347331106663, 0.04616914689540863, 0.022490881383419037, 0.008387668989598751, -0.0498899444937706, 0.009998217225074768, -0.0687071681022644, 0.09612099081277847, 0.07746677100658417 },
			{ 0.023104766383767128, -0.09222863614559174, -0.05769795924425125, 0.10546236485242844, -0.153946191072464, -0.22004245221614838, -0.03776966407895088, 0.010943780653178692, 0.040215130895376205, 0.02679438702762127 },
			{ -0.021048875525593758, -0.12011071294546127, -0.04558049514889717, -0.0042841797694563866, -0.04531419277191162, -0.01653195172548294, -0.03232847526669502, 0.12271671742200851, 0.014761751517653465, -0.21359646320343018 },
			{ -0.07013607770204544, -0.22294363379478455, -0.13194029033184052, -0.03534605726599693, 0.02731752209365368, -0.09861692041158676, -0.05233481526374817, 0.1898995041847229, -0.017402715981006622, -0.03728251904249191 },
			{ -0.04977685958147049, -0.017076825723052025, -0.14674532413482666, -0.12399872392416, 0.19232094287872314, 0.12255322188138962, 0.036298517137765884, 0.09668666869401932, -0.13430702686309814, -0.4321826994419098 },
			{ -0.16428446769714355, -0.026190951466560364, -0.2227097600698471, -0.11402957886457443, 0.15790995955467224, 0.048057861626148224, 0.14268836379051208, 0.35046902298927307, -0.027127448469400406, -0.13246449828147888 },
			{ -0.08039776980876923, 0.0016319542191922665, -0.07146959751844406, -0.2065637856721878, 0.31872767210006714, 0.1472235918045044, -0.04148460924625397, 0.228288933634758, -0.2349574714899063, -0.447570264339447 },
			{ -0.1525868922472, 0.09085848927497864, -0.09925868362188339, -0.10907857865095139, 0.19779807329177856, 0.2566353380680084, -0.09636195749044418, 0.03269897773861885, -0.06600219756364822, -0.2576163709163666 },
			{ 0.017145995050668716, -0.009103480726480484, -0.04213634505867958, -0.22587594389915466, 0.2648680508136749, 0.1709943562746048, -0.144270658493042, -0.057741664350032806, 0.10991794615983963, -0.11526124179363251 },
			{ 0.15369141101837158, -0.08795727789402008, -0.02155747078359127, -0.17247025668621063, 0.04666683077812195, -0.12717576324939728, -0.23352688550949097, -0.035263508558273315, 0.034010812640190125, 0.06782452762126923 },
			{ 0.09324218332767487, -0.17409656941890717, 0.060013994574546814, 0.00041112315375357866, 0.027343468740582466, -0.025239059701561928, -0.21177445352077484, -0.03182349354028702, 0.07943788170814514, 0.027208250015974045 },
			{ 0.13385675847530365, 0.02026219666004181, -0.044839609414339066, -0.02598397061228752, -0.18589173257350922, -0.047273993492126465, -0.17646069824695587, 0.022896714508533478, 0.13146299123764038, -0.00265799043700099 },
			{ 0.18490926921367645, -0.1282476931810379, 0.09906241297721863, 0.0673457607626915, -0.05267574265599251, -0.17678950726985931, -0.13799647986888885, 0.010930838994681835, 0.07312881201505661, 0.044870033860206604 },
			{ 0.16918951272964478, 0.06150265038013458, 0.045216504484415054, 0.03877383470535278, -0.08614256978034973, -0.24834802746772766, -0.25362902879714966, -0.15768249332904816, 0.0994555801153183, 0.04474484175443649 },
			{ 0.06282062083482742, -0.1356634646654129, -0.024109801277518272, -0.06955444812774658, 0.09829951077699661, 0.04966435953974724, 0.04107954353094101, -0.09314411133527756, -0.07517103850841522, 0.07107968628406525 },
			{ 0.0829126164317131, -0.06897049397230148, -0.008976749144494534, 0.15186409652233124, -0.1460234522819519, -0.05844619870185852, -0.011882388032972813, -0.016149351373314857, 0.11258913576602936, -0.07234293967485428 },
			{ -0.07801790535449982, -0.1288953423500061, -0.08443575352430344, 0.03757065534591675, 0.025954391807317734, -0.01618499867618084, -0.10008522868156433, 0.08198964595794678, 0.059624530375003815, -0.1376606822013855 },
			{ 0.05438493564724922, -0.05251092463731766, -0.12822312116622925, 0.12196309119462967, -0.16739888489246368, -0.20496733486652374, -0.13976995646953583, -0.06087850406765938, 0.057797081768512726, 0.1994537115097046 },
			{ -0.12405072897672653, -0.014309754595160484, -0.0013732567895203829, -0.11484073847532272, 0.05211025848984718, 0.02745569497346878, 0.0953390821814537, -0.09632831811904907, 0.03663400560617447, -0.051914364099502563 },
			{ -0.01824963092803955, -0.06901886314153671, 0.024186426773667336, -0.2808801233768463, 0.013068869709968567, 0.14573393762111664, 0.08766492456197739, 0.07468272000551224, 0.03307222202420235, -0.09340056031942368 },
			{ -0.04823774844408035, -0.1872134953737259, -0.1254121959209442, -0.2374459058046341, 0.1382121741771698, 0.1779802441596985, -0.02016947977244854, 0.1486271172761917, 0.10188014805316925, 0.0024091070517897606 },
			{ -0.04699734225869179, -0.08254192769527435, 0.00042031757766380906, -0.4652135670185089, 0.04224054142832756, 0.2306264042854309, -0.04290047660470009, 0.1365099549293518, 0.08721881359815598, 0.08718861639499664 },
			{ 0.10945256054401398, 0.009391149505972862, 0.08200419694185257, -0.23585546016693115, -0.06088830530643463, 0.20152868330478668, -0.03456011787056923, 0.006011790130287409, 0.09969044476747513, -0.1425117552280426 },
			{ 0.13766714930534363, 0.0027443580329418182, -0.003270442131906748, -0.1537552773952484, 0.07383614033460617, -0.0695255920290947, -0.15468372404575348, 0.12198009341955185, 0.07212165743112564, 0.06943169981241226 },
			{ 0.2559159994125366, 0.0184689462184906, -0.02616056054830551, 0.01580350659787655, 0.10611453652381897, -0.02503451332449913, -0.41149967908859253, 0.015478165820240974, 0.03194357082247734, 0.0004259385459590703 },
			{ 0.12444061785936356, -0.0631718561053276, -0.010900228284299374, 0.005614084657281637, -0.07299450784921646, -0.10998587310314178, -0.38501542806625366, 0.08212803304195404, 0.02227625995874405, 0.08784984052181244 },
			{ 0.10532688349485397, 0.0042922464199364185, 0.010460346937179565, -0.046948209404945374, 0.0800270065665245, -0.12942953407764435, -0.12255646288394928, 0.0057214004918932915, 0.11285091936588287, 0.08697152882814407 },
			{ 0.18315622210502625, 0.08332681655883789, -0.017327720299363136, 0.15756924450397491, -0.22372741997241974, -0.181365966796875, -0.14154201745986938, -0.09750322252511978, 0.09886903315782547, 0.10539637506008148 },
			{ 0.12234164774417877, 0.0354141928255558, -0.05134173855185509, -0.2752881646156311, -0.07999477535486221, 0.010271303355693817, -0.017482630908489227, -0.07927205413579941, -0.09680400788784027, 0.06501025706529617 },
			{ 0.13648515939712524, -0.18056116998195648, -0.14853274822235107, -0.119612917304039, -0.07456739991903305, -0.05988190323114395, 0.019081778824329376, -0.1889389008283615, -0.0006500473828054965, -0.024559395387768745 },
			{ -0.03967955708503723, 0.03371339291334152, -0.11550170183181763, -0.0509389266371727, -0.060231104493141174, -0.014515404589474201, -0.1246146634221077, 0.14583313465118408, 0.06537259370088577, 0.027729013934731483 },
			{ 0.16587020456790924, 0.07160589098930359, -0.02618989534676075, 0.11100517958402634, -0.13615451753139496, -0.24058294296264648, -0.06069624423980713, -0.2302129715681076, 0.022535134106874466, 0.2081230878829956 },
			{ -0.15449528396129608, 0.012192471884191036, -0.06699122488498688, 0.015054937452077866, -0.14051786065101624, 0.06153827905654907, 0.23995235562324524, -0.09836027771234512, 0.09462752938270569, 0.05890879034996033 },
			{ 0.04862954467535019, -0.13259118795394897, -0.12931855022907257, -0.20550432801246643, 0.04818602651357651, -0.01683151349425316, -0.004285948351025581, -0.05481305345892906, 0.09840758889913559, 0.1127922385931015 },
			{ 0.03705943375825882, -0.30934998393058777, -0.20384958386421204, -0.2605122923851013, 0.02391330525279045, 0.12231998145580292, 0.12225942313671112, -0.0060459100641310215, 0.1712554693222046, 0.08972674608230591 },
			{ 0.22152511775493622, -0.24541330337524414, -0.2325892150402069, -0.33943143486976624, -0.004128171131014824, 0.04281678423285484, -0.009627082385122776, 0.133487269282341, 0.13257257640361786, 0.1321595162153244 },
			{ 0.09607583284378052, 0.08200188726186752, -0.23978263139724731, -0.21962033212184906, -0.03384594991803169, 0.03306295722723007, 0.030810324475169182, 0.06569872796535492, 0.2123495191335678, -0.06877361238002777 },
			{ 0.05676475539803505, 0.09457338601350784, -0.228810116648674, -0.23741193115711212, -0.08293897658586502, -0.042333535850048065, -0.25656965374946594, 0.20611795783042908, 0.029176974669098854, 0.0004734605026897043 },
			{ 0.16960862278938293, 0.07963048666715622, -0.06798252463340759, -0.09872689098119736, 0.021197469905018806, -0.10629358887672424, -0.2400045543909073, 0.007467582356184721, -0.05935074761509895, -0.008259505033493042 },
			{ 0.08666291832923889, 0.0030733866151422262, -0.035194650292396545, -0.05801907926797867, 0.02919440157711506, 0.049977581948041916, -0.29793581366539, 0.06527110934257507, -0.015953250229358673, 0.08700913935899734 },
			{ 0.07538994401693344, 0.10368691384792328, -0.04612468183040619, -0.012875479646027088, 0.026184869930148125, -0.11718232929706573, -0.06365537643432617, 0.1094643697142601, -0.10540124028921127, 0.07014811784029007 },
			{ 0.11711309850215912, -0.15759505331516266, -0.011981814168393612, -0.008450076915323734, -0.1200869232416153, -0.1292065680027008, 0.008826079778373241, 0.06125672534108162, 0.017782123759388924, 0.050124745815992355 },
			{ 0.03393709287047386, 0.042970433831214905, -0.057760089635849, -0.11555750668048859, -0.17376945912837982, 0.023469215258955956, 0.03968740627169609, 0.1277467906475067, 0.028081342577934265, 0.01215628907084465 },
			{ 0.08521081507205963, -0.18376009166240692, -0.2251581996679306, -0.21140654385089874, -0.21436721086502075, 0.1782817393541336, -0.017292184755206108, -0.05207790806889534, 0.08100415021181107, -0.0037410517688840628 },
			{ 0.044678956270217896, -0.005976493004709482, -0.04409078136086464, 0.013812346383929253, -0.13273006677627563, 0.036737166345119476, -0.06296387314796448, 0.09546665102243423, -0.09906727820634842, 0.03293868526816368 },
			{ 0.030068079009652138, 0.22544224560260773, 0.0005538221448659897, 0.0052735949866473675, -0.17754176259040833, -0.13965582847595215, 0.033960554748773575, -0.0488755889236927, -0.09083988517522812, 0.23457355797290802 },
			{ 0.04585160315036774, 0.14405059814453125, -0.22896353900432587, 0.13313232362270355, -0.28425702452659607, 0.08323926478624344, 0.23855243623256683, -0.026637541130185127, -0.03942252695560455, 0.2267792522907257 },
			{ 0.05908415466547012, -0.10414963960647583, -0.2553647756576538, 0.04159361124038696, -0.017015134915709496, -0.014662191271781921, 0.12938041985034943, -0.13961349427700043, -0.0788983404636383, 0.13488325476646423 },
			{ 0.12537340819835663, -0.11462930589914322, -0.4415568709373474, -0.07659590989351273, 0.04388828203082085, 0.11882983148097992, 0.11765720695257187, 0.03540259972214699, -0.02446393482387066, 0.012706486508250237 },
			{ 0.28839659690856934, -0.4855291545391083, -0.2975350022315979, -0.24720819294452667, -0.08787726610898972, 0.08739335089921951, 0.1717032492160797, 0.10046280920505524, -0.009304502047598362, 0.010166946798563004 },
			{ 0.06450778990983963, 0.08263888210058212, -0.10437659174203873, -0.12743748724460602, -0.04572509601712227, 0.031921613961458206, -0.0028633857145905495, -0.06861209869384766, 0.10880877077579498, -0.15261071920394897 },
			{ 0.008909473195672035, 0.18094442784786224, -0.2466089129447937, -0.1317443996667862, 0.02786577306687832, -0.043991442769765854, 0.005848133470863104, -0.053375400602817535, 0.06800080835819244, -0.04093560948967934 },
			{ -0.010070621967315674, 0.16956031322479248, -0.050125300884246826, -0.005406617186963558, 0.13027304410934448, -0.009541214443743229, -0.03387784957885742, -0.03704057261347771, -0.026684850454330444, 0.09578696638345718 },
			{ -0.15075601637363434, 0.1420646458864212, -0.10928483307361603, -0.03853705897927284, -0.0153104392811656, -0.018482303246855736, 0.012416301295161247, 0.02502058446407318, -0.018428701907396317, 0.10011940449476242 },
			{ 0.05713453143835068, -0.15601009130477905, -0.12672920525074005, -0.0008500181720592082, -0.04253145679831505, 0.035951435565948486, -0.0051631382666528225, 0.07809562981128693, -0.08438251167535782, 0.03444559499621391 },
			{ 0.05044054612517357, -0.04534570872783661, -0.08401260524988174, 0.04415930435061455, -0.10103504359722137, -0.00618005683645606, 0.029416564851999283, 0.04560872167348862, 0.06403031945228577, 0.08593511581420898 },
			{ 0.015772053971886635, 0.09029506891965866, -0.16886650025844574, 0.02315833792090416, -0.06668553501367569, -0.055450089275836945, 0.1551036536693573, -0.028258053585886955, -0.08856271952390671, 0.14181853830814362 },
			{ 0.1587180644273758, -0.13792778551578522, -0.18489481508731842, -0.12311850488185883, -0.06598008424043655, -0.009915424510836601, 0.01175749208778143, -0.06455782800912857, -0.039841800928115845, -0.11817260086536407 },
			{ 0.034387558698654175, 0.03429626673460007, -0.09500222653150558, -0.0023463196121156216, -0.02360657975077629, 0.020042868331074715, -0.1042860671877861, 0.00010403266787761822, -0.24056664109230042, -0.025836804881691933 },
			{ 0.06487378478050232, 0.019789723679423332, -0.028319112956523895, 0.12864890694618225, -0.264671266078949, -0.04791390895843506, 0.0843110904097557, -0.2001388818025589, -0.3688834607601166, 0.08690433204174042 },
			{ -0.021211855113506317, -0.13884326815605164, -0.2757102847099304, 0.28686094284057617, -0.09218689054250717, 0.06038600206375122, 0.2216326743364334, -0.03148132190108299, -0.38120755553245544, 0.15313908457756042 },
			{ 0.009229798801243305, -0.12404965609312057, -0.2065899819135666, 0.2147921770811081, 0.05484059080481529, 0.005286416504532099, 0.15823835134506226, 0.04799218475818634, -0.2602858245372772, 0.07113005965948105 },
			{ 0.15350940823554993, 0.030891479924321175, -0.251554012298584, 0.046860601752996445, 0.10033594816923141, 0.0114589286968112, 0.06666664779186249, 0.059251219034194946, -0.14862650632858276, -0.032661642879247665 },
			{ 0.24462027847766876, -0.13961045444011688, -0.10102008283138275, -0.09500224143266678, -0.1440628468990326, -0.01275083888322115, 0.2720837891101837, -0.12283959239721298, -0.044889360666275024, -0.12272204458713531 },
			{ 0.06544243544340134, 0.09288470447063446, 0.03186434507369995, -0.02758818306028843, -0.04162118211388588, -0.013715640641748905, 0.24356237053871155, -0.053218163549900055, 0.045995019376277924, -0.14925077557563782 },
			{ 0.012285112403333187, 0.011967780999839306, -0.0300870630890131, -0.0772538036108017, -0.06506228446960449, -0.06360872089862823, 0.18440452218055725, -0.14878502488136292, 0.1450205296278, -0.03536919131875038 },
			{ -0.2077210396528244, -0.04968484863638878, -0.11018119007349014, -0.00425387267023325, 0.03584804758429527, 0.03782421723008156, 0.04522348567843437, -0.06929372251033783, 0.1223609521985054, 0.046003665775060654 },
			{ -0.09568676352500916, 0.02756384387612343, -0.07516466081142426, 0.07614721357822418, 0.05432799831032753, -0.05421847477555275, 0.10530591011047363, -0.08494564145803452, -0.004602483939379454, 0.0907776802778244 },
			{ 0.055580563843250275, -0.16040757298469543, -0.11507130414247513, -0.06632780283689499, 0.05944095551967621, 0.04380207881331444, 0.01465641986578703, -0.07276144623756409, 0.0840631052851677, -0.01438617892563343 },
			{ 0.11291646957397461, -0.19727954268455505, -0.2757101058959961, 0.003210268449038267, 0.03668658807873726, 0.08045719563961029, 0.1185709610581398, 0.11945304274559021, 0.017240865156054497, -0.042826879769563675 },
			{ 0.1109502986073494, 0.11132907122373581, -0.13382603228092194, -0.06717531383037567, 0.010547985322773457, 0.043498750776052475, 0.06991953402757645, 0.018371768295764923, -0.06322561204433441, 0.03920285776257515 },
			{ 0.13621623814105988, -0.10307256132364273, -0.19574584066867828, 0.027414295822381973, 0.052621010690927505, -0.05516989901661873, 0.033702485263347626, -0.045709624886512756, 0.04994197562336922, -0.11323963850736618 },
			{ 0.1386946737766266, 0.04458465427160263, 0.10148607194423676, 0.08083963394165039, -0.05562121048569679, -0.08532249927520752, -0.18116839230060577, 0.04777690768241882, -0.1160895898938179, -0.17875808477401733 },
			{ 0.10770998895168304, 0.09031182527542114, -0.025996390730142593, 0.23445042967796326, -0.17554917931556702, -0.03397916629910469, -0.0756506472826004, -0.20876027643680573, -0.20704202353954315, 0.01834741421043873 },
			{ 0.07390204071998596, -0.4077579379081726, -0.11495354771614075, 0.0896294042468071, -0.13447459042072296, 0.03503606468439102, 0.0730057805776596, 0.024611422792077065, -0.18947908282279968, 0.09540975093841553 },
			{ 0.0888034775853157, -0.3751796782016754, 0.08834695816040039, -0.025689564645290375, -0.07300370931625366, -0.01341305673122406, 0.01751917228102684, 0.15547965466976166, -0.1911401003599167, 0.04849052056670189 },
			{ 0.10647693276405334, -0.16514909267425537, -0.029472000896930695, -0.13013173639774323, -0.10040850192308426, -0.1718171089887619, 0.12070368230342865, 0.18480272591114044, -0.005190044175833464, -0.0034795603714883327 },
			{ 0.2051914483308792, -0.10100842267274857, 0.22967205941677094, -0.2567233443260193, -0.0993768647313118, -0.1330908089876175, 0.2803296446800232, -0.07177723199129105, 0.0399477481842041, -0.1359250694513321 },
			{ -0.07112231105566025, 0.03471698984503746, -0.0028318020049482584, -0.13485252857208252, -0.09753348678350449, -0.17758974432945251, 0.15123462677001953, -0.1769070029258728, 0.0964881181716919, -0.20280127227306366 },
			{ -0.12100481986999512, 0.0011202289024367929, -0.05705273896455765, -0.09606090188026428, 0.09115955233573914, -0.058883924037218094, 0.0916726142168045, -0.01684192754328251, 0.12753525376319885, -0.027586625888943672 },
			{ -0.1176176443696022, -0.033009178936481476, -0.09321799874305725, -0.021671779453754425, -7.723777525825426e-05, -0.07872648537158966, 0.05320153757929802, -0.114593505859375, 0.15265029668807983, -0.026086781173944473 },
			{ -0.036450475454330444, 0.01432266179472208, -0.12766234576702118, 0.001249778550118208, 0.032854363322257996, 0.038845766335725784, 0.06862305104732513, -0.04804283380508423, 0.04641085863113403, 0.0037054107524454594 },
			{ 0.016330892220139503, -0.1028895154595375, -0.07498817145824432, 0.03340296819806099, 0.09243443608283997, 0.013311920687556267, 0.044713664799928665, 0.0747075006365776, -0.018381744623184204, 0.03188082203269005 },
			{ -0.0007401870097965002, 0.15289859473705292, -0.0726151168346405, 0.05976124107837677, -0.021417615935206413, 0.01154221873730421, 0.03684280440211296, -0.034772343933582306, 0.010147999040782452, 0.05841834843158722 },
			{ 0.0524011068046093, 0.12145569175481796, -0.03916570171713829, -0.01081425417214632, 0.025291236117482185, 0.007078464608639479, -0.022501204162836075, -0.040228988975286484, 0.014588491059839725, -0.10445378720760345 },
			{ 0.06789210438728333, -0.06646834313869476, 0.02095680870115757, 0.07701686024665833, -0.005467105191200972, -0.06603482365608215, 0.10302191972732544, -0.1843210756778717, -0.04239896684885025, -0.1601720154285431 },
			{ 0.07409719377756119, -0.11173471063375473, 0.03489615023136139, 0.14683060348033905, -0.07400009781122208, 0.045606207102537155, -0.10412871837615967, -0.010589989833533764, -0.07056382298469543, -0.1389102339744568 },
			{ 0.1292237937450409, -0.07300955057144165, -0.030898122116923332, 0.11123417317867279, -0.05753473564982414, 0.16424284875392914, -0.11650874465703964, -0.35423824191093445, -0.1417655646800995, -0.16529811918735504 },
			{ 0.013602379709482193, -0.2776208519935608, -0.0692501962184906, 0.12194759398698807, -0.20911644399166107, 0.17317846417427063, -0.06750187277793884, 0.03249705210328102, 0.10078369826078415, -0.09706433862447739 },
			{ 0.18836641311645508, -0.18674735724925995, 0.19019153714179993, -0.006304069422185421, -0.19114945828914642, 0.0025803938042372465, 0.16965506970882416, -0.12211330235004425, 0.03766244277358055, -0.09991335868835449 },
			{ 0.19279825687408447, -0.23698194324970245, 0.24375653266906738, -0.15101167559623718, -0.19512809813022614, -0.00023019769287202507, 0.10328584164381027, -0.02785511687397957, 0.10216657817363739, -0.21740110218524933 },
			{ 0.22749891877174377, -0.11080063879489899, 0.17020389437675476, -0.25119712948799133, -0.15255744755268097, -0.09423348307609558, 0.126302108168602, -0.0800008624792099, 0.09132011979818344, -0.2961002588272095 },
			{ -0.023483406752347946, 0.05426758527755737, 0.10723615437746048, -0.1669655740261078, -0.15400393307209015, -0.094502292573452, 0.10762093216180801, 0.04187744855880737, 0.15965040028095245, -0.06789723038673401 },
			{ -0.15137338638305664, 0.005222523119300604, 0.04907752946019173, -0.10435131937265396, 0.09269800782203674, -0.03150327131152153, 0.10213903337717056, -0.0038101263344287872, 0.1296233981847763, -0.019301922991871834 },
			{ -0.1458018273115158, 0.02387065626680851, -0.005101770628243685, -0.0004726526385638863, 0.09783477336168289, -0.07999949157238007, 0.061572879552841187, 0.006370422430336475, 0.0171134565025568, 0.03680339828133583 },
			{ -0.16462808847427368, 0.07710903882980347, 0.06137606501579285, 0.012270210310816765, 0.09335863590240479, 0.011478853411972523, 0.01838296465575695, 0.005769604817032814, 0.04659189656376839, -0.027871226891875267 },
			{ -0.14367885887622833, 0.13819769024848938, 0.006345427595078945, 0.09475700557231903, -0.016122663393616676, 0.006371239200234413, -0.09439453482627869, 0.03380012884736061, -0.05969838425517082, -0.07718581706285477 },
			{ -0.047907911241054535, 0.10069423168897629, 0.028620677068829536, 0.00715224351733923, 0.1555277407169342, -0.023344526067376137, 0.032601986080408096, 0.034792739897966385, -0.11571317911148071, -0.025973737239837646 },
			{ 0.06533308327198029, 0.23359087109565735, -0.017320306971669197, 0.002439142670482397, 0.020511209964752197, -0.06958025693893433, 0.027255786582827568, 0.08463697135448456, -0.23452270030975342, -0.031499799340963364 },
			{ 0.08289738744497299, -0.025495048612356186, -0.022830283269286156, -0.07518956810235977, -0.06214461103081703, 0.0500829853117466, -0.13021288812160492, -0.1164422258734703, 0.10953377932310104, -0.11111801117658615 },
			{ 0.09027925133705139, 0.03981240838766098, 0.01901182346045971, 0.0654037669301033, 0.005835471674799919, -0.08848535269498825, -0.0676703080534935, -0.09815973043441772, 0.03583187237381935, 0.013352802954614162 },
			{ 0.024664856493473053, 0.028713619336485863, 0.0653267353773117, 0.012279873713850975, -0.0925237387418747, 0.05561966821551323, -0.13535304367542267, -0.36198189854621887, -0.17358019948005676, -0.15018591284751892 },
			{ 0.05874563381075859, -0.0679287388920784, -0.008862633258104324, 0.09083003550767899, -0.08983083814382553, -0.0007625707658007741, -0.2557017505168915, -0.20631103217601776, 0.10116185992956161, -0.040884099900722504 },
			{ 0.1357526034116745, -0.010179640725255013, 0.11695585399866104, -0.05376112461090088, -0.02176918275654316, -0.11400400847196579, 0.026810292154550552, -0.20937199890613556, 0.11240559071302414, -0.2670712471008301 },
			{ 0.13363051414489746, -0.04811602085828781, 0.1384512484073639, -0.056039661169052124, -0.07790166884660721, -0.002733816159889102, 0.11168047040700912, -0.10054276883602142, 0.14726129174232483, -0.2515971064567566 },
			{ -0.006587956566363573, -0.030048586428165436, 0.08355232328176498, -0.26497408747673035, 0.07203187793493271, -0.11322225630283356, 0.0934796929359436, -0.0638221949338913, 0.1643848419189453, 0.013944310136139393 },
			{ 0.009713303297758102, 0.10355839133262634, -0.006702172104269266, -0.1531902253627777, 0.05261505767703056, -0.053923316299915314, 0.02838815003633499, 0.019407974556088448, -0.020977683365345, 0.055814050137996674 },
			{ -0.09428399801254272, 0.17288437485694885, -0.03171504661440849, -0.07861780375242233, 0.15571002662181854, 0.026051994413137436, 0.06394283473491669, 0.07790833711624146, -0.12948304414749146, -0.007099467795342207 },
			{ -0.16434462368488312, -0.08087578415870667, 0.03998718038201332, -0.10503137111663818, 0.19908133149147034, -0.12168484926223755, 0.012979097664356232, -0.008273717015981674, -0.028448844328522682, -0.08737888187170029 },
			{ -0.1505795419216156, 0.06166791915893555, 0.052802130579948425, -0.08873722702264786, 0.06613083183765411, -0.004648054484277964, 0.06518123298883438, -0.0987233817577362, 0.041275084018707275, -0.11226263642311096 },
			{ -0.19189578294754028, 0.23533527553081512, 0.16949231922626495, -0.052678074687719345, 0.05047360062599182, -0.10485563427209854, -0.04468485713005066, -0.006891253404319286, -0.002363898092880845, 0.05590052530169487 },
			{ -0.08815091103315353, 0.03897500038146973, 0.12623228132724762, -0.12379387021064758, -0.028152398765087128, -0.03532622382044792, -0.06550262123346329, 0.04014182463288307, 0.031077707186341286, 0.13589896261692047 },
			{ -0.05887799710035324, 0.08376883715391159, 0.10199590772390366, -0.029910042881965637, -0.02855594828724861, -0.01197323203086853, -0.028064437210559845, 0.005695577710866928, -0.04704439640045166, 0.10127517580986023 },
			{ -0.1069125384092331, 0.12391321361064911, 0.003995198756456375, -0.05400940030813217, -0.18530993163585663, -0.08164574950933456, 0.029878875240683556, -0.4052581489086151, 0.11790849268436432, 0.15486863255500793 },
			{ -0.11113778501749039, -0.06761815398931503, -0.07831600308418274, 0.02075657807290554, -0.09007818251848221, 0.06111714988946915, -0.17420749366283417, 0.08340752124786377, -0.10539304465055466, -0.1207633838057518 },
			{ -0.09381542354822159, -0.029672369360923767, -0.018168553709983826, -0.028855927288532257, 0.01222414430230856, -0.0379730649292469, -0.20679886639118195, 0.01309509202837944, -0.05989779159426689, -0.02880900166928768 },
			{ 0.03570086881518364, 0.08418441563844681, 0.008677560836076736, -0.07135045528411865, -0.12511877715587616, -0.009614693000912666, -0.2340354174375534, -0.10567010194063187, 0.048229582607746124, -0.11665299534797668 },
			{ 0.06387364864349365, 0.13878680765628815, 0.19653098285198212, -0.1624138206243515, 0.13575272262096405, -0.21417547762393951, -0.2645668685436249, 0.008253117091953754, 0.018478764221072197, -0.09368040412664413 },
			{ 0.1488625556230545, 0.04567165672779083, 0.03334856405854225, -0.050172749906778336, 0.1156802624464035, -0.12916769087314606, -0.046900469809770584, -0.00969651248306036, 0.09654217213392258, -0.10268662869930267 },
			{ 0.19409464299678802, -0.01033800095319748, -0.11196471750736237, -0.07536782324314117, 0.1648370623588562, -0.05750787630677223, -0.09933406114578247, 0.014670397154986858, -0.015182027593255043, 0.1787906289100647 },
			{ -0.018338976427912712, 0.00332997040823102, -0.15767845511436462, -0.02557334676384926, 0.10737298429012299, -0.045576103031635284, -0.15279224514961243, -0.039731744676828384, -0.020560838282108307, 0.03541009873151779 },
			{ -0.2259521186351776, -0.0026351262349635363, -0.1374521553516388, -0.10905230045318604, 0.14304912090301514, 0.036922432482242584, -0.031141549348831177, 0.06756813824176788, -0.07755862176418304, 0.1624041050672531 },
			{ -0.0463707260787487, 0.010767967440187931, 0.019948795437812805, -0.0955476313829422, 0.06039419397711754, -0.04547001048922539, 0.04669412970542908, 0.08661109209060669, 0.007902822457253933, 0.06697758287191391 },
			{ -0.0878731980919838, 0.1532295197248459, 0.16396625339984894, -0.04404400661587715, -0.0696038156747818, 0.0038928159046918154, 0.026389019563794136, 0.0445401631295681, -0.07749736309051514, 0.07797030359506607 },
			{ -0.140158548951149, 0.11703425645828247, 0.19233378767967224, -0.1164126992225647, -0.011580435559153557, -0.04473787546157837, -0.014392492361366749, -0.06792039424180984, -0.12175355106592178, 0.12622685730457306 },
			{ -0.1690589189529419, -0.09551078826189041, 0.09781892597675323, -0.023551590740680695, 0.1318967193365097, -0.04443550854921341, -0.021172748878598213, -0.059968773275613785, -0.057084545493125916, 0.024010106921195984 },
			{ -0.04272061958909035, -0.11271568387746811, 0.0009639063500799239, -0.09069429337978363, 0.1029648408293724, 0.14773021638393402, -0.1344958394765854, -0.061081141233444214, -0.08589986711740494, -0.011152302846312523 },
			{ -0.02341197431087494, 0.09207352250814438, 0.02709999307990074, 0.04848204180598259, -0.08957893401384354, 0.13204964995384216, -0.22009436786174774, -0.36411088705062866, -0.11014881730079651, 0.2018173336982727 },
			{ -0.010929080657660961, -0.07674968987703323, -0.18577441573143005, 0.00018222586368210614, -0.2016644924879074, -0.02319299429655075, 0.007982062175869942, 0.019235890358686447, -0.2267545908689499, 0.06814059615135193 },
			{ -0.014742198400199413, -0.010832221247255802, -0.10153953731060028, -0.03128357231616974, -0.009979529306292534, -0.051263563334941864, -0.035701919347047806, 0.10922375321388245, -0.08267638832330704, 0.10717517882585526 },
			{ -0.08875531703233719, 0.00048053250066004694, -0.3838155269622803, -0.07590694725513458, -0.06101662665605545, -0.1443270444869995, -0.10842045396566391, 0.3198871612548828, -0.26368120312690735, 0.16494983434677124 },
			{ -0.15970849990844727, -0.04580632597208023, -0.22934012115001678, 0.12405695766210556, 0.026321284472942352, -0.2690623104572296, -0.3226001560688019, 0.2266893982887268, -0.15006422996520996, 0.27270248532295227 },
			{ 0.006079057231545448, 0.03348124399781227, -0.3505244255065918, -0.0032517120707780123, 0.1420663744211197, -0.07848910987377167, -0.45655786991119385, 0.31614983081817627, -0.23648601770401, 0.07939473539590836 },
			{ -0.05962806195020676, -0.2825184762477875, -0.16098825633525848, -0.01422174647450447, 0.05613548308610916, 0.03214791789650917, -0.3741144835948944, 0.033660002052783966, -0.07020604610443115, 0.22713935375213623 },
			{ -0.12143854051828384, 0.06337451189756393, -0.15720856189727783, 0.07668006420135498, 0.050433240830898285, 0.12758804857730865, -0.37938037514686584, 0.09578826278448105, -0.0773838609457016, 0.18892744183540344 },
			{ -0.04447312653064728, -0.029913194477558136, -0.02702510356903076, -0.07084070891141891, -0.01014221366494894, 0.0610814243555069, -0.07748793065547943, 0.04103982821106911, -0.03181678056716919, 0.038022905588150024 },
			{ -0.06170009449124336, 0.07081109285354614, 0.0799674242734909, 0.08024082332849503, -0.07177328318357468, -0.015862412750720978, -0.1223309263586998, -0.03534155711531639, -0.02532845176756382, 0.10829533636569977 },
			{ 0.05128080025315285, 0.03970058634877205, 0.11576015502214432, -0.019887235015630722, -0.1429060995578766, -0.038125310093164444, -0.018080784007906914, 0.0175214521586895, -0.013006174005568027, -0.03175963833928108 },
			{ 0.04137705639004707, 0.2581022381782532, 0.06480152159929276, 0.010739716701209545, -0.10702645778656006, -0.12273108959197998, -0.035568609833717346, 0.02628500945866108, 0.004315041936933994, 0.04359252378344536 },
			{ -0.07963062822818756, 0.02310333214700222, -0.014160842634737492, 0.03182149678468704, 0.013564498163759708, -0.10084902495145798, 0.17793940007686615, -0.11059661209583282, -0.0241465475410223, 0.0903005450963974 },
			{ -0.11257985979318619, -0.17610757052898407, 0.07456430792808533, -0.13972188532352448, -0.019421609118580818, -0.04281829670071602, -0.10989104956388474, -0.1996980458498001, 0.10806530714035034, 0.04970164597034454 },
			{ -0.25282618403434753, -0.13974474370479584, -0.01661825366318226, -0.004937822464853525, -0.0807199776172638, 0.11247975379228592, -0.3226538300514221, -0.36326098442077637, -0.01265533734112978, 0.1228967234492302 },
			{ 0.02911234088242054, 0.3297891318798065, -0.062036022543907166, -0.13288851082324982, 0.007002105005085468, 0.18842779099941254, -0.053973034024238586, 0.1257188469171524, -0.22816751897335052, -0.057773903012275696 },
			{ 0.1282949596643448, 0.17557601630687714, 0.03328529745340347, -0.18431110680103302, -0.028546983376145363, 0.16372066736221313, 0.0884869322180748, 0.1271103471517563, -0.26545149087905884, -0.08324267715215683 },
			{ 0.10688474029302597, 0.18556702136993408, 0.042051248252391815, -0.011670035310089588, 0.0049644517712295055, -0.07577330619096756, 0.05984123796224594, -0.05285303294658661, -0.11401347070932388, -0.11895804107189178 },
			{ -0.0165888499468565, 0.3473229706287384, -0.11414042860269547, -0.0858626514673233, -0.18910539150238037, 0.05510365217924118, 0.1365293264389038, -0.12864957749843597, -0.04675476253032684, -0.2676526606082916 },
			{ -0.06778508424758911, 0.1823723167181015, -0.0038766299840062857, 0.13495731353759766, -0.09181053191423416, 0.0034965984523296356, -0.14015254378318787, 0.023453690111637115, -0.1086297333240509, -0.22968719899654388 },
			{ 0.09767211973667145, 0.07630491256713867, 0.13470157980918884, -0.0668526291847229, -0.12037450820207596, 0.028809288516640663, 0.09312944859266281, 0.03352738916873932, -0.082318514585495, -0.23020035028457642 },
			{ -0.03935037553310394, 0.10833209753036499, -0.0005248826346360147, -0.10209906846284866, 0.11933602392673492, 0.057584431022405624, 0.0888790711760521, -0.07868105173110962, -0.058847878128290176, -0.2066890448331833 },
			{ 0.027422603219747543, 0.09500245749950409, -0.05595214292407036, -0.1669415682554245, 0.18276171386241913, 0.10639645904302597, 0.09068639576435089, -0.056667983531951904, 0.05140544846653938, -0.3057112991809845 },
			{ -0.07383056730031967, 0.08303778618574142, -0.19294069707393646, -0.22456258535385132, 0.03013848140835762, 0.10838592052459717, 0.08001786470413208, 0.02348514273762703, -0.06357146054506302, -0.22302229702472687 },
			{ 0.2106671780347824, 0.11267755180597305, -0.19300171732902527, -0.4094708263874054, 0.007080684415996075, -0.09574207663536072, 0.2646210491657257, 0.08832518756389618, -0.1525534987449646, -0.0845600888133049 },
			{ 0.2774697244167328, 0.15134836733341217, -0.0900081917643547, -0.21732814610004425, -0.05221371352672577, -0.012451861053705215, 0.05491224676370621, 0.0713403970003128, -0.17842210829257965, -0.18937192857265472 },
			{ 0.057449594140052795, 0.2248014360666275, 0.030931435525417328, -0.2147182822227478, -0.10712119191884995, 0.1294204294681549, 0.005888037849217653, 0.09760256856679916, -0.221243754029274, -0.18091422319412231 },
			{ 0.12329012155532837, 0.1664583832025528, 0.05777539685368538, -0.1709536612033844, -0.03412177786231041, 0.19963443279266357, 0.0033744617830961943, 0.09482712298631668, -0.30367615818977356, -0.1580425202846527 },
			{ 0.03006005473434925, 0.28379473090171814, 0.06426006555557251, -0.20912756025791168, -0.08133284002542496, 0.22127780318260193, 0.05754124000668526, 0.08413448184728622, -0.29575496912002563, -0.12256883829832077 },
			{ 0.17643943428993225, 0.3119431436061859, -0.0571056492626667, -0.15885458886623383, -0.015104885213077068, 0.053083740174770355, -0.05937131494283676, 0.1159883663058281, -0.308732271194458, -0.18476052582263947 },
			{ 0.11316753178834915, 0.261243611574173, -0.052871812134981155, -0.10490182787179947, 0.05625581741333008, 0.2046092003583908, -0.015249204821884632, 0.11735343188047409, -0.26346802711486816, -0.16993077099323273 },
			{ 0.07469774037599564, 0.04294249415397644, 0.04719452187418938, -0.02085956558585167, 0.02178332395851612, 0.015223421156406403, -0.03850828856229782, 0.000480366317788139, -0.17935234308242798, -0.05022929608821869 },
			{ 0.09263475984334946, -0.1438792198896408, 0.042069680988788605, 0.11049789190292358, 0.17747214436531067, -0.032922569662332535, -0.2366742193698883, 0.08397182077169418, 0.005035524256527424, -0.09695665538311005 },
			{ 0.1190144494175911, -0.2399129420518875, 0.07758763432502747, 0.08077508211135864, 0.22233083844184875, -0.1910400539636612, 0.03357231616973877, 0.02522750198841095, 0.11498919874429703, -0.14099708199501038 },
			{ 0.057857587933540344, 0.03091234341263771, -0.05246177315711975, 0.02467631921172142, -0.026317501440644264, 0.026350440457463264, 0.029708046466112137, -0.21265143156051636, -0.08217675983905792, -0.022462259978055954 },
			{ -0.08020679652690887, -0.0022387977223843336, 0.04622379317879677, -0.4072558283805847, 0.06391816586256027, -0.13117770850658417, 0.244487002491951, -0.23080095648765564, -0.045619841665029526, 0.07926678657531738 },
			{ -0.06758426874876022, 0.13364145159721375, -0.11977417767047882, -0.5302295088768005, 0.2113967090845108, -0.015372835099697113, 0.1901160627603531, -0.05009492114186287, -0.0729491338133812, -0.04518633708357811 },
			{ 0.03656565770506859, 0.15034900605678558, -0.24096816778182983, -0.6112568378448486, 0.07486520707607269, 0.020508235320448875, 0.2840125560760498, -0.14598879218101501, -0.19272446632385254, -0.16779235005378723 },
			{ -0.026805894449353218, 0.3846611976623535, -0.33972448110580444, -0.525484025478363, 0.0020346082746982574, 0.3853687644004822, 0.3076138496398926, -0.032395005226135254, -0.45170295238494873, -0.21349278092384338 },
			{ 0.0017156103858724236, 0.13484607636928558, -0.2751713991165161, -0.4910605251789093, 0.1355535387992859, 0.21655228734016418, 0.30538684129714966, -0.011209064163267612, -0.362342894077301, -0.31493663787841797 },
			{ -0.04430929571390152, 0.11632423102855682, -0.3729090094566345, -0.36290672421455383, -0.07269816100597382, 0.12179560214281082, 0.4514905512332916, 0.12176513671875, -0.12493927031755447, -0.2735552191734314 },
			{ -0.09561348706483841, 0.014373243786394596, -0.25099241733551025, -0.3130671977996826, -0.03053574077785015, 0.07221810519695282, 0.27759507298469543, 0.11111114174127579, -0.13279694318771362, -0.2039535641670227 },
			{ 0.10516751557588577, 0.20599527657032013, 0.056463293731212616, -0.2758617103099823, -0.047094106674194336, -0.007450523786246777, 0.1062176525592804, 0.09341998398303986, -0.19333498179912567, -0.06609965115785599 },
			{ 0.05477287620306015, 0.17776888608932495, -0.1403929740190506, -0.02662551961839199, -0.024232499301433563, 0.02440427802503109, 0.027423636987805367, 0.033381231129169464, -0.23139651119709015, -0.17762617766857147 },
			{ -0.027958756312727928, -0.002519431756809354, -0.006089328788220882, 0.03026113100349903, -0.1847914159297943, 0.0022611855529248714, -0.07815779000520706, -0.009374026209115982, -0.08497218042612076, 0.018681665882468224 },
			{ 0.03340671956539154, 0.1527981013059616, -0.00933095347136259, -0.01616460271179676, -0.2455056607723236, -0.20949839055538177, -0.1429322510957718, 0.06283608824014664, 0.08234560489654541, -0.04459607973694801 },
			{ 0.017986305058002472, -0.3010496199131012, 0.262560099363327, 0.10653457790613174, -0.08932559192180634, -0.29603180289268494, -0.11283056437969208, -0.08697192370891571, 0.020208746194839478, -0.0138850724324584 },
			{ -0.15084081888198853, -0.6261545419692993, 0.2697637379169464, 0.16719530522823334, -0.21050962805747986, -0.2807806730270386, -0.09309127926826477, -0.2909858822822571, 0.06823940575122833, 0.3403865098953247 },
			{ -0.23996737599372864, -0.31023579835891724, 0.23901405930519104, 0.23713621497154236, -0.39943191409111023, -0.22629636526107788, -0.2118646651506424, -0.6041812300682068, 0.06493160128593445, 0.5775060653686523 },
			{ -0.02485169842839241, -0.04933111369609833, 0.005851428955793381, 0.07737882435321808, -0.49738210439682007, 0.041419532150030136, 0.10674604028463364, -0.5497189164161682, -0.07186861336231232, 0.3714090585708618 },
			{ -0.13774234056472778, 0.12267841398715973, -0.15336191654205322, -0.014675889164209366, -0.15355297923088074, 0.22288945317268372, 0.24942316114902496, -0.29536715149879456, -0.029759736731648445, -0.14667287468910217 },
			{ -0.21677732467651367, 0.08174072951078415, -0.1806565225124359, -0.37536606192588806, 0.022214876487851143, 0.22739385068416595, 0.18643222749233246, -0.07095816731452942, -0.05509765446186066, -0.23239637911319733 },
			{ -0.3840606212615967, 0.04762239381670952, -0.27806466817855835, -0.5038905143737793, 0.027672460302710533, 0.29497236013412476, 0.16229674220085144, -0.05787009373307228, -0.055292800068855286, -0.29858508706092834 },
			{ -0.27608200907707214, 0.055889420211315155, -0.37584057450294495, -0.38486093282699585, 0.06844844669103622, 0.40099915862083435, 0.158082515001297, 0.06394578516483307, 0.010617456398904324, -0.2163476198911667 },
			{ -0.1496538370847702, 0.05205739289522171, -0.3633562922477722, -0.25444474816322327, 0.06746391206979752, 0.21627773344516754, 0.041028942912817, -0.2500217854976654, 0.044995106756687164, -0.33830711245536804 },
			{ -0.029131677001714706, -0.05806250870227814, -0.12687794864177704, -0.13000397384166718, 0.11401312053203583, 0.05399607867002487, 0.04525250941514969, -0.007263607811182737, -0.0012987680966034532, -0.2705935835838318 },
			{ 0.04341211915016174, 0.09809760004281998, -0.09381438046693802, -0.12398885190486908, -0.0370696596801281, 0.045448657125234604, 0.005506943911314011, 0.034906718879938126, -0.09197047352790833, -0.14512525498867035 },
			{ 0.021278822794556618, 0.27113932371139526, -0.21359524130821228, -0.0006421871948987246, -0.014685016125440598, 0.02693583071231842, 0.012619154527783394, 0.15091177821159363, -0.290552020072937, -0.006981913466006517 },
			{ -0.019867273047566414, 0.29451560974121094, -0.025613907724618912, 0.10493513941764832, -0.23214977979660034, -0.0959220752120018, -0.12801390886306763, 0.03380926325917244, -0.20840497314929962, 0.13464148342609406 },
			{ 0.022285426035523415, 0.1958002746105194, 0.24541297554969788, 0.20561639964580536, -0.303790807723999, -0.4136844575405121, -0.19998358190059662, -0.2124069184064865, -0.1541650891304016, 0.025170452892780304 },
			{ -0.2720456123352051, 0.027756795287132263, 0.13731621205806732, 0.23804962635040283, -0.18580234050750732, -0.44133955240249634, -0.2433825582265854, 0.044226616621017456, -0.06618655472993851, 0.044520776718854904 },
			{ -0.17360839247703552, -0.23523421585559845, 0.14231054484844208, 0.27935540676116943, -0.20276838541030884, -0.2272484302520752, -0.2986123561859131, 0.1359763741493225, -0.25159668922424316, -0.06446563452482224 },
			{ -0.16503779590129852, -0.3291504681110382, 0.050547972321510315, 0.13791128993034363, -0.32935959100723267, -0.12148652970790863, -0.017561081796884537, 0.1258317083120346, -0.0559721402823925, 0.045574698597192764 },
			{ -0.10858654975891113, -0.12283416837453842, 0.04212920740246773, -0.01449926383793354, -0.5004773736000061, 0.12567740678787231, -0.018942493945360184, 0.19270017743110657, -0.14359231293201447, 0.052390020340681076 },
			{ -0.011322916485369205, 0.07912442088127136, -0.004969968926161528, -0.15158633887767792, -0.38033032417297363, 0.14925821125507355, 0.06679824739694595, 0.09932658076286316, -0.18406465649604797, -0.03882376104593277 },
			{ 0.006411446724087, 0.205017551779747, -0.18255579471588135, -0.09805421531200409, -0.1480221003293991, 0.2702743113040924, 0.14777155220508575, -0.08178555220365524, -0.2058068960905075, 0.023570220917463303 },
			{ -0.29291367530822754, 0.11036732792854309, -0.21835577487945557, -0.11635452508926392, -0.02192351594567299, 0.17796413600444794, 0.18557539582252502, 0.04244044050574303, -0.011625146493315697, -0.1756899505853653 },
			{ -0.3133992850780487, -0.025991125032305717, -0.3018208146095276, -0.005442102439701557, 0.16681717336177826, 0.3528652489185333, 0.0408162921667099, 0.1368827521800995, 0.02314048632979393, -0.2275298535823822 },
			{ -0.37857916951179504, -0.08910725265741348, -0.10806328803300858, -0.13985154032707214, 0.07470061630010605, 0.3124080002307892, 0.1532762497663498, -0.03954922407865524, -0.053021688014268875, -0.14922656118869781 },
			{ -0.0950346291065216, -0.07509587705135345, 0.16593638062477112, -0.05412690341472626, 0.02419254183769226, -0.020644476637244225, 0.1473105549812317, -0.08171813189983368, -0.09286679327487946, -0.004463604185730219 },
			{ -0.0416451022028923, -0.04223176836967468, 0.02763528749346733, -0.06809168308973312, 0.11246398091316223, -0.04588424041867256, 0.11103080213069916, -0.1482607126235962, -0.20209407806396484, -0.15553100407123566 },
